<?xml version="1.0"?>
<opencv_storage>
<opencv_ml_svm>
  <format>3</format>
  <svmType>C_SVC</svmType>
  <kernel>
    <type>RBF</type>
    <gamma>1.</gamma></kernel>
  <C>10.</C>
  <term_criteria><iterations>10000</iterations></term_criteria>
  <var_count>576</var_count>
  <class_count>10</class_count>
  <class_labels type_id="opencv-matrix">
    <rows>10</rows>
    <cols>1</cols>
    <dt>i</dt>
    <data>
      0 1 2 3 4 5 6 7 8 9</data></class_labels>
  <sv_total>100</sv_total>
  <support_vectors>
    <_>
      1.79090363e-03 5.72217768e-03 1.56242342e-03 0. 1.28761196e-04 0.
      0. 0. 0. 1.09619156e-01 1.63211554e-01 2.30377331e-01 0.
      1.13023154e-03 0. 1.52831839e-04 5.10737591e-05 1.35508887e-02
      1.44943194e-02 1.26607895e-01 3.35972577e-01 1.39177278e-01
      5.94109409e-02 0. 0. 0. 6.71805115e-04 3.64333838e-01
      5.00041485e-01 5.00041485e-01 3.21314156e-01 1.15553342e-01 0.
      1.22217112e-03 4.08428808e-04 4.02209610e-02 1.30236194e-01
      1.73950031e-01 1.58713639e-01 0. 5.04143653e-04 0. 1.69603678e-04
      5.66786075e-05 3.84791903e-02 3.12478960e-01 2.84131855e-01
      9.51678008e-02 0. 2.02443174e-04 0. 1.18709417e-04 3.96706128e-05
      2.55159765e-01 2.77627647e-01 3.12478960e-01 3.12478960e-01
      2.93991137e-02 1.19667547e-02 0. 1.17069972e-03 3.91227804e-04
      8.06371272e-02 3.12478960e-01 3.12478960e-01 3.12478960e-01
      6.85122679e-04 1.01718656e-03 0. 7.12475856e-04 2.38097156e-04
      3.12478960e-01 2.95491785e-01 8.95688385e-02 4.97257384e-03 0. 0.
      0. 1.99164686e-04 5.51534966e-02 2.95491785e-01 2.76060879e-01
      1.18288968e-03 9.31546019e-05 0. 1.48360341e-04 2.88960495e-04
      7.61137903e-02 2.93992877e-01 2.95491785e-01 2.95491785e-01
      1.78822368e-01 2.75119245e-02 0. 2.17395209e-04 0. 2.98746978e-03
      1.06634349e-01 2.95491785e-01 2.95491785e-01 4.28475533e-03
      5.48824435e-04 0. 6.11074315e-03 8.92371684e-03 2.73402095e-01
      2.95491785e-01 2.95491785e-01 9.03600380e-02 9.06305359e-05
      2.71200290e-04 0. 6.50473230e-04 1.86056073e-03 2.46796131e-01
      3.25829089e-01 2.32209295e-01 6.64281193e-03 2.53765393e-05
      7.59360992e-05 0. 2.95669626e-04 2.10676226e-03 1.19748697e-01
      6.16682582e-02 4.24174741e-02 1.39213383e-01 6.05411537e-04
      1.81161868e-03 0. 4.24550474e-02 6.06490485e-02 3.70953768e-01
      3.70953768e-01 3.70953768e-01 1.88840777e-02 2.06637371e-04
      6.18337013e-04 0. 1.04840524e-01 7.06866682e-02 3.70953768e-01
      3.70953768e-01 1.33778974e-01 3.16149485e-03 3.62175331e-02
      2.15074241e-01 9.56732482e-02 2.24521980e-01 9.13027022e-03
      4.84887650e-03 1.52446722e-04 2.71999132e-04 5.99176176e-02
      3.17879051e-01 3.17879051e-01 2.37332687e-01 3.17879051e-01
      6.20429106e-02 1.55498786e-02 4.04420076e-04 5.15990704e-03
      4.23578592e-03 3.66812875e-03 9.10878032e-02 4.88864146e-02
      3.17879051e-01 5.77591918e-02 1.68394163e-01 4.32144552e-02
      4.10482893e-03 9.09370650e-03 4.16184701e-02 2.14884341e-01
      1.42737895e-01 3.17879051e-01 3.10537905e-01 3.17879051e-01
      9.98670608e-02 1.38069401e-02 1.68928921e-01 3.06696683e-01
      3.06696683e-01 1.32492676e-01 2.59128302e-01 6.85646757e-02
      1.35459360e-02 3.88122193e-04 4.40894179e-02 3.06696683e-01
      3.06696683e-01 3.06696683e-01 5.69778960e-03 2.31337622e-02
      4.47783060e-03 1.24574965e-03 1.64602010e-04 1.93707988e-01
      1.78682413e-02 7.57407025e-02 1.83374420e-01 1.07536346e-01
      3.06696683e-01 3.06696683e-01 3.06696683e-01 8.38233680e-02
      5.50776571e-02 5.35269491e-02 2.40845010e-02 3.72833237e-02
      6.24217093e-03 6.35244623e-02 4.55297604e-02 6.51261061e-02
      3.66976261e-02 9.15221944e-02 3.21621507e-01 1.91471457e-01
      5.16864248e-02 0. 8.48485390e-04 0. 6.41157618e-03 1.15961567e-01
      3.21621507e-01 3.21621507e-01 5.39788743e-03 9.34932847e-04
      1.50907494e-03 7.72467405e-02 5.63088246e-02 3.21621507e-01
      3.21621507e-01 3.21621507e-01 1.37086511e-01 4.53753993e-02
      2.19747722e-02 0. 5.86591370e-04 0. 2.77350610e-03 4.51200316e-03
      1.34433016e-01 2.93686241e-01 2.78115064e-01 2.43766800e-01
      1.99829843e-02 8.76268968e-02 1.95805617e-02 5.78335263e-02
      4.31406423e-02 1.95008025e-01 3.09610050e-02 2.03005795e-04
      1.84373348e-03 8.65368638e-03 1.94877148e-01 8.90891626e-02
      3.30383748e-01 2.88615167e-01 1.87902480e-01 4.42660227e-03
      7.59732502e-05 1.81682233e-03 1.01138800e-02 3.30383748e-01
      1.23873286e-01 3.30383748e-01 2.19335988e-01 6.97564185e-02
      7.40866885e-02 1.49247050e-01 1.97177917e-01 9.18584689e-02
      3.30383748e-01 5.13837487e-02 6.83999360e-02 5.46339154e-02
      5.25259003e-02 2.47791018e-02 1.16259374e-01 2.45341361e-01
      1.73304290e-01 3.30383748e-01 8.42360482e-02 1.20171405e-01
      4.96734120e-02 2.06447002e-02 1.02091962e-02 0. 0. 5.85673004e-03
      2.78908223e-01 7.14367405e-02 2.99611717e-01 6.81416392e-02
      1.16415536e-02 2.37999838e-02 0. 0. 1.92571525e-02 3.52939457e-01
      3.52939457e-01 3.52939457e-01 3.52939457e-01 9.41431373e-02
      2.45246710e-03 0. 0. 0. 3.37981321e-02 2.38865297e-02
      7.50562325e-02 8.78601987e-03 5.60365198e-03 3.86026390e-02 0. 0.
      0. 1.04823261e-01 1.50602013e-01 3.52939457e-01 3.52939457e-01
      1.38124526e-01 6.52798414e-02 0. 0. 6.69307867e-03 1.78822458e-01
      2.05883279e-01 2.96509117e-01 2.44922757e-01 1.80634484e-01
      2.95017928e-01 0. 0. 4.37634939e-04 1.63532775e-02 3.18839476e-02
      1.15236759e-01 1.14090659e-01 2.96509117e-01 1.70167804e-01 0. 0.
      0. 2.27703657e-02 5.09277098e-02 2.96509117e-01 2.96509117e-01
      2.82166004e-01 2.96509117e-01 0. 0. 0. 1.50554487e-03
      6.30008755e-03 1.02206036e-01 2.47896627e-01 2.96509117e-01
      3.08801532e-01 6.40847236e-02 2.76668444e-02 0. 4.44493722e-04 0.
      3.49191972e-03 6.20023254e-03 3.08801532e-01 3.08801532e-01
      2.99317241e-01 2.02866852e-01 3.33265541e-03 6.71060476e-03 0. 0.
      0. 2.51185298e-01 3.08801532e-01 1.15411431e-01 2.15186533e-02 0.
      2.67117750e-04 0. 2.71593756e-03 1.22108199e-02 3.08801532e-01
      3.08801532e-01 3.08801532e-01 1.45903364e-01 0. 9.61652142e-04 0.
      0. 0. 3.08801532e-01 2.85100311e-01 2.85100311e-01 2.85100311e-01
      7.38388821e-02 9.97634158e-02 3.53461504e-03 0. 0. 1.23162873e-01
      1.07852511e-01 2.85100311e-01 2.85100311e-01 1.93790615e-01
      2.85100311e-01 5.86419646e-03 0. 0. 1.87862590e-02 2.85100311e-01
      2.85100311e-01 2.85100311e-01 4.20497824e-03 1.94133585e-03 0. 0.
      0. 1.51833415e-01 1.14147440e-01 2.85100311e-01 2.57952869e-01
      2.98065990e-02 1.48320468e-02 8.79794752e-05 0. 0. 2.03906037e-02
      5.80585212e-04 0. 0. 0. 1.67561637e-03 3.64066623e-02
      2.60955319e-02 1.54372882e-02 1.47327632e-02 2.79027790e-01 0. 0.
      0. 1.95939839e-02 1.57762200e-01 5.44355810e-01 5.44355810e-01
      5.44355810e-01 0. 0. 0. 0. 0. 0. 0. 0. 0. 1.99671660e-04 0. 0. 0.
      0. 0. 0. 0. 1.99671660e-04 3.30573022e-01 0. 0. 0. 2.58260965e-03
      6.77358825e-03 2.53971070e-01 4.05033678e-01 3.99440974e-01
      4.05033678e-01 0. 0. 0. 6.81926671e-04 0. 6.95360675e-02
      4.05033678e-01 4.05033678e-01 6.75138040e-03 0. 0. 0. 0. 0. 0. 0.
      6.75138040e-03 2.67608296e-02 0. 0. 0. 0. 0. 0. 0. 2.67608296e-02
      4.38872308e-01 1.67142347e-01 0. 0. 6.68513530e-05 0. 0.
      2.06972416e-02 4.38872308e-01 4.38872308e-01 4.38872308e-01
      5.24393469e-02 0. 4.59988660e-04 0. 0. 0. 4.38872308e-01
      2.46009156e-02 0. 0. 0. 0. 0. 0. 0. 2.46009156e-02 1.10958768e-02
      0. 0. 0. 0. 0. 0. 0. 1.10958768e-02 4.39699948e-01 4.39699948e-01
      4.39699948e-01 0. 3.13340919e-03 0. 0. 0. 4.39699948e-01
      2.33182803e-01 3.40559155e-01 2.23254427e-01 0. 2.95497174e-03 0.
      0. 0. 4.50417586e-02 3.08484072e-03 0. 0. 0. 0. 0. 0. 0.
      3.08484072e-03 0. 0. 0. 0. 0. 0. 0. 0. 0.</_>
    <_>
      0. 0. 0. 0. 0. 0. 0. 0. 0. 0. 0. 0. 0. 0. 0. 0. 0. 0.
      1.67957142e-01 9.22110379e-02 2.78713126e-02 0. 3.62718944e-03 0.
      0. 0. 1.58508942e-01 5.02499223e-01 5.02499223e-01 4.18069661e-01
      0. 7.43404869e-03 0. 0. 0. 5.02499223e-01 0. 0. 0. 0. 0. 0. 0. 0.
      0. 0. 0. 0. 0. 0. 0. 0. 0. 0. 4.27858204e-01 4.27858204e-01
      5.83535992e-02 0. 4.75949026e-04 0. 0. 0. 4.27858204e-01
      4.27858204e-01 2.75809109e-01 0. 0. 0. 0. 0. 3.06081548e-02
      4.27858204e-01 0. 0. 0. 0. 0. 0. 0. 0. 0. 0. 0. 0. 0. 0. 0. 0. 0.
      0. 4.17923272e-01 2.11218465e-02 0. 0. 0. 0. 6.99777249e-03
      3.11223686e-01 4.17923272e-01 4.17923272e-01 0. 0. 0. 0. 0.
      1.58652574e-01 4.17923272e-01 4.17923272e-01 0. 0. 0. 0. 0. 0. 0.
      0. 0. 0. 0. 0. 0. 0. 0. 0. 0. 0. 4.94927138e-01 0. 0. 0. 0. 0.
      4.94927138e-01 4.94927138e-01 4.94927138e-01 8.37878138e-02 0. 0.
      0. 0. 0. 2.55054608e-02 2.35404000e-02 8.37878138e-02
      4.68931794e-02 8.99671465e-02 1.57781214e-01 3.28968875e-02
      4.46888944e-03 0. 0. 0. 4.00215834e-02 2.71574855e-01
      3.37784499e-01 2.42654979e-01 3.17031033e-02 4.40961961e-03 0. 0.
      0. 2.10843131e-01 6.81589693e-02 3.34926009e-01 3.37784499e-01
      1.34733811e-01 1.26806945e-01 0. 0. 0. 3.84785309e-02
      3.37784499e-01 3.37784499e-01 3.37784499e-01 1.03486352e-01
      2.44344939e-02 0. 0. 0. 2.15142250e-01 2.98764437e-01
      2.98764437e-01 6.71341345e-02 1.58983283e-03 4.90959559e-04 0. 0.
      0. 2.98764437e-01 2.98764437e-01 1.62011266e-01 2.47548521e-03 0.
      1.99174083e-05 0. 0. 2.10014936e-02 2.98764437e-01 2.98764437e-01
      2.98764437e-01 2.17002854e-01 4.40401537e-03 1.57156494e-03 0. 0.
      0. 2.93180972e-01 2.98764437e-01 1.69350103e-01 1.07271019e-02 0.
      5.14949206e-05 0. 0. 2.46290602e-02 2.98764437e-01 2.96459705e-01
      1.13577731e-02 0. 0. 8.97728314e-05 0. 1.11846281e-02
      1.64315969e-01 2.96459705e-01 1.88733459e-01 0. 0. 0.
      2.66858563e-03 3.01957130e-03 1.67345703e-01 2.96459705e-01
      2.96459705e-01 2.96459705e-01 1.10462224e-02 0. 0. 2.79945391e-03
      2.05516932e-03 3.47988121e-02 1.83553755e-01 2.96459705e-01
      1.76711917e-01 0. 0. 9.59971920e-03 1.96083739e-01 1.01697467e-01
      2.96459705e-01 2.96459705e-01 2.96459705e-01 8.89741927e-02 0. 0.
      0. 4.06738780e-02 1.41491396e-02 3.23561907e-01 3.02941740e-01
      2.97890246e-01 1.44003648e-02 0. 0. 0. 4.34930921e-02
      9.00846440e-03 1.27707154e-01 5.18351123e-02 1.88659877e-02
      9.65738446e-02 0. 0. 1.69708170e-02 3.23561907e-01 2.23006606e-01
      3.23561907e-01 3.23561907e-01 3.23561907e-01 1.37201464e-02 0. 0.
      1.13138778e-03 3.23561907e-01 7.18544945e-02 2.94442862e-01
      7.08748177e-02 1.94616597e-02 2.66572870e-02 1.64862111e-01
      3.07743788e-01 1.73533022e-01 3.07743788e-01 3.85164283e-02
      1.61553863e-02 1.03467191e-02 1.75378434e-02 1.62412062e-01
      2.81711459e-01 3.07743788e-01 1.14154607e-01 1.40034318e-01
      3.29245739e-02 1.46251237e-02 1.38846366e-02 9.71083343e-02
      1.30909175e-01 1.34414481e-02 5.79808317e-02 8.09273794e-02
      3.07743788e-01 1.38761356e-01 2.26708636e-01 1.47058159e-01
      1.98923618e-01 3.07743788e-01 2.43890937e-02 4.64266352e-02
      5.38663529e-02 1.68250620e-01 8.43883231e-02 8.21474940e-02
      1.10982426e-01 3.07743788e-01 2.81071246e-01 1.89661995e-01
      1.61250412e-01 4.69176192e-03 8.95203184e-03 2.47396668e-03
      1.48213515e-03 2.71959254e-03 1.67483330e-01 3.23471278e-01
      7.89501816e-02 5.70705347e-03 0. 4.24491700e-05 0. 0.
      6.13454171e-03 2.72961885e-01 3.80514830e-01 8.94756839e-02
      8.31568893e-03 1.61959964e-03 8.38527549e-03 5.44272643e-03
      5.79882180e-03 1.78211983e-02 3.80514830e-01 3.80514830e-01
      2.32196704e-01 0. 0. 2.49581012e-06 0. 0. 0. 3.80514830e-01
      1.99117735e-01 6.07892983e-02 1.16762938e-02 0. 7.65629113e-03
      2.31428049e-03 1.37880715e-02 4.29094993e-02 2.44229242e-01
      1.25585437e-01 1.57200873e-01 1.08937457e-01 9.32083577e-02
      2.99315900e-01 9.84041914e-02 1.07519507e-01 1.32070288e-01
      2.18988091e-01 2.99315900e-01 2.68428594e-01 4.82102372e-02 0.
      4.23154654e-03 1.54285372e-04 1.82342555e-05 0. 2.99315900e-01
      2.99315900e-01 2.99315900e-01 2.99315900e-01 1.05473995e-01
      1.77281260e-01 5.05762920e-03 2.73513870e-04 0. 2.99315900e-01
      4.28128764e-02 9.60559621e-02 1.53005689e-01 1.55757248e-01
      3.41402739e-01 1.29873648e-01 1.49334937e-01 8.04900974e-02
      7.82412291e-02 1.92268763e-03 1.37894461e-02 6.31356686e-02
      4.93380465e-02 3.41402739e-01 3.22659351e-02 5.94618097e-02
      8.08674656e-03 2.27410649e-03 2.52017587e-01 3.41402739e-01
      3.41402739e-01 2.21982166e-01 3.41402739e-01 6.20854460e-03
      2.00718889e-04 0. 9.55903009e-02 2.19283625e-02 7.78301954e-02
      1.92454934e-01 9.94873643e-02 3.41402739e-01 1.75253570e-03 0. 0.
      7.08253589e-03 2.77929485e-01 0. 0. 1.10178301e-03 2.63186216e-01
      8.72299597e-02 3.42358321e-01 3.05426925e-01 3.42358321e-01
      3.42358321e-01 0. 0. 0. 3.79943736e-02 3.72070074e-02
      8.20198581e-02 2.19093069e-01 3.42358321e-01 8.40274319e-02 0. 0.
      0. 2.57065170e-03 0. 4.55795042e-02 7.62127936e-02 1.45813808e-01
      2.62982696e-01 0. 0. 0. 4.36574010e-05 0. 7.68665830e-03
      6.96692914e-02 3.35395694e-01 3.97042006e-01 9.44757760e-02 0. 0.
      7.22670229e-04 1.36245403e-03 2.28881417e-03 2.32720654e-02
      3.97042006e-01 3.97042006e-01 2.79332221e-01 0. 0. 0. 0. 0. 0.
      3.97042006e-01 2.64074087e-01 3.18243504e-02 0. 0. 0. 0. 0.
      8.36738013e-03 2.76948750e-01 2.45184422e-01 9.64644253e-02 0. 0.
      0. 0. 0. 0. 2.47029409e-01 3.56352657e-01 3.11374754e-01
      7.15190247e-02 0. 8.81941116e-04 0. 0. 0. 3.56352657e-01
      3.56352657e-01 3.56352657e-01 3.56352657e-01 2.06241775e-02
      1.17224986e-02 0. 0. 0. 3.56352657e-01 2.20107228e-01
      6.19996712e-02 1.38722397e-02 0. 1.42649078e-04 0. 0. 0.
      2.14173868e-01 1.25661716e-01 6.94155246e-02 3.75935249e-02 0.
      5.02261159e-04 0. 0. 0. 1.07269458e-01 4.36290652e-01
      4.36290652e-01 4.36290652e-01 2.02091143e-01 1.80499360e-01
      7.96426961e-04 0. 0. 3.59540969e-01 9.14234444e-02 2.01801136e-01
      3.30521703e-01 1.26642466e-01 1.54059187e-01 1.02397753e-03 0. 0.
      2.52831373e-02 9.61785987e-02 8.93073604e-02 4.62105162e-02 0.
      6.31407776e-04 0. 0. 0. 6.13462552e-02 5.40817576e-03
      2.14760448e-03 8.32871359e-04 0. 0. 0. 0. 0. 1.74036773e-03</_>
    <_>
      0. 0. 0. 0. 0. 0. 0. 0. 0. 1.01387259e-02 0. 0. 0. 2.47716904e-04
      0. 0. 0. 1.06027620e-02 1.47888195e-02 1.05213456e-01
      2.06744090e-01 0. 1.44614791e-02 0. 0. 0. 8.26631952e-03
      4.97051060e-01 4.97051060e-01 4.97051060e-01 0. 2.88373251e-02 0.
      0. 0. 4.45533961e-01 2.14097109e-02 6.27033878e-03 4.19286219e-03
      0. 7.90882477e-05 0. 0. 0. 1.43001666e-02 1.12631157e-01
      1.83140058e-02 1.23844631e-02 0. 1.82511340e-05 0. 0. 0.
      9.32574943e-02 3.77248585e-01 3.77248585e-01 3.36643457e-01 0.
      3.22493212e-03 0. 0. 0. 2.93327540e-01 3.77248585e-01
      3.77248585e-01 2.50352502e-01 0. 7.91271799e-04 0. 0. 0.
      3.77248585e-01 1.22025669e-01 5.05025405e-03 3.31663666e-03 0. 0.
      0. 8.93109464e-05 8.01992696e-03 1.22091614e-01 7.06412122e-02 0.
      0. 0. 0. 0. 3.87014094e-04 3.26397195e-02 8.84340554e-02
      4.12059635e-01 1.39777720e-01 4.97495532e-02 0. 4.30865221e-05 0.
      5.74871153e-03 1.78495407e-01 4.12059635e-01 4.12059635e-01 0. 0.
      0. 1.01996982e-03 0. 2.21893057e-01 4.12059635e-01 4.12059635e-01
      2.87711024e-02 0. 0. 0. 0. 0. 3.80412530e-04 3.65457498e-02
      5.21456711e-02 4.26742881e-05 0. 0. 0. 0. 0. 0. 2.27560668e-04
      1.12405443e-03 3.31191689e-01 0. 0. 0. 6.32744236e-03 0.
      4.25096840e-01 4.25096840e-01 4.25096840e-01 6.19229488e-02 0. 0.
      0. 1.23670762e-02 0. 4.25096840e-01 3.74893010e-01 1.17388979e-01
      2.92377872e-03 3.95071432e-02 1.59901112e-01 4.84918058e-02
      7.82923922e-02 2.50215316e-03 0. 0. 1.61107548e-03 1.52327329e-01
      3.85987252e-01 3.85987252e-01 7.76370838e-02 1.57429516e-01
      3.21705383e-03 0. 0. 7.03597143e-02 6.61416037e-04 2.35638637e-02
      1.58578902e-01 8.44162777e-02 3.85987252e-01 1.10245096e-02 0. 0.
      3.58484540e-04 6.89041540e-02 2.96190202e-01 3.85987252e-01
      1.74793899e-01 3.85987252e-01 1.43406270e-02 0. 0. 2.05822084e-02
      2.94227213e-01 2.94227213e-01 2.94227213e-01 1.84559729e-02
      4.27314900e-02 3.40765167e-04 0. 0. 1.68840811e-01 2.94227213e-01
      2.94227213e-01 1.09829940e-01 7.86039222e-04 8.55962571e-04 0. 0.
      0. 2.94227213e-01 1.78767473e-01 2.94227213e-01 2.71707952e-01
      6.28549308e-02 2.94227213e-01 1.54651573e-03 0. 0. 5.60994670e-02
      2.37266988e-01 2.68549263e-01 3.35151143e-02 3.40616982e-03
      1.31250387e-02 0. 0. 0. 1.38419420e-01 3.17168117e-01
      1.62322327e-01 1.96551755e-02 0. 4.62725766e-05 0. 1.34005491e-02
      1.58661693e-01 3.17168117e-01 3.17168117e-01 0. 0. 0.
      1.91467591e-02 3.39758652e-03 2.88840353e-01 3.17168117e-01
      3.17168117e-01 1.89254761e-01 7.58120045e-02 0. 0. 1.06782873e-05
      0. 1.00109885e-02 5.73041998e-02 2.08851799e-01 1.15205280e-01
      2.11875304e-03 9.43263434e-03 1.15777934e-02 1.74121901e-01
      1.48472469e-02 1.76303163e-01 3.06060374e-01 3.17168117e-01
      8.34726617e-02 0. 0. 7.13549554e-04 7.89574161e-02 2.14472413e-02
      3.15673918e-01 3.15673918e-01 3.05143148e-01 1.95241552e-02 0. 0.
      3.09204822e-03 1.29876852e-01 6.34385720e-02 3.15673918e-01
      1.78122044e-01 5.53258695e-02 3.22340317e-02 4.67875740e-03
      2.20714584e-02 3.65782268e-02 3.15673918e-01 5.70158772e-02
      3.15673918e-01 2.51691669e-01 1.94479212e-01 6.10037381e-03
      2.12670793e-03 1.48489680e-02 6.39165565e-02 3.15673918e-01
      1.17627770e-01 3.15673918e-01 9.63964537e-02 4.08093780e-02
      2.02069041e-05 1.51626460e-04 1.33455554e-02 2.11554207e-02
      4.00743961e-01 5.31729981e-02 3.28538232e-02 1.02915871e-03
      2.02069041e-05 1.61271282e-02 2.35495139e-02 5.61981164e-02
      4.96323369e-02 4.00743961e-01 1.11100465e-01 1.31714836e-01
      7.18522724e-03 2.28636656e-02 2.30603013e-03 0. 0. 7.78472889e-03
      3.40155363e-01 1.26085252e-01 1.42448202e-01 2.64823921e-02
      2.30603013e-03 1.42718747e-01 0. 0. 1.23277791e-02 4.00743961e-01
      2.71157503e-01 4.00743961e-01 1.28114492e-01 2.21923396e-01
      8.59819651e-02 3.89003679e-02 4.64902297e-02 2.68630404e-02
      3.61487985e-01 5.01445197e-02 1.07159853e-01 8.48528557e-03
      9.56361666e-02 1.67804256e-01 2.15362329e-02 5.97589510e-03
      1.45840296e-03 2.09613908e-02 2.49044900e-03 1.07074790e-02
      1.66225503e-03 1.61882505e-01 3.61487985e-01 0. 0. 2.79262871e-03
      3.52088928e-01 9.99678820e-02 3.26183945e-01 7.73993358e-02
      3.61487985e-01 3.61487985e-01 7.47050494e-02 0. 0. 6.67033251e-03
      3.58791137e-03 2.36104857e-02 6.02319278e-03 3.61487985e-01
      1.75464481e-01 7.58766830e-02 0. 0. 0. 0. 0. 1.35707189e-04
      1.22181296e-01 2.83574432e-01 1.52265429e-01 8.52748156e-02
      4.95476127e-02 1.60470784e-01 5.93945570e-03 1.56088984e-02
      1.66661851e-02 1.39239103e-01 3.55919719e-01 3.55919719e-01 0. 0.
      0. 0. 0. 0. 3.55919719e-01 3.55919719e-01 3.55919719e-01
      1.53772697e-01 3.66338119e-02 2.98052840e-02 1.58614464e-04 0. 0.
      3.55919719e-01 1.22389048e-01 9.74996388e-02 2.16416076e-01
      1.58935934e-01 3.01205009e-01 1.78899448e-02 3.15832943e-02
      1.93188321e-02 5.49136139e-02 1.29727190e-02 3.09275854e-02
      1.98423266e-01 2.49395266e-01 3.01205009e-01 2.58825347e-02
      3.05679757e-02 5.08796750e-03 5.91870258e-03 3.01205009e-01
      3.01205009e-01 3.01205009e-01 1.51638493e-01 1.53794155e-01
      5.62071160e-04 0. 0. 1.94519460e-01 6.41787127e-02 1.91795275e-01
      3.01205009e-01 2.46285096e-01 2.46173441e-01 4.37166455e-04 0. 0.
      1.86624285e-02 1.53230242e-02 0. 0. 2.18524155e-03 2.19470009e-01
      1.57782018e-01 2.66617060e-01 8.68882686e-02 1.53230242e-02
      3.49186182e-01 0. 0. 4.01432673e-03 3.49186182e-01 3.49186182e-01
      3.49186182e-01 3.49186182e-01 3.49186182e-01 6.06528902e-03 0. 0.
      0. 5.27278986e-03 5.55558689e-03 1.63168125e-02 1.32422661e-02
      6.06528902e-03 1.94864437e-01 0. 0. 0. 1.13368165e-02
      1.29729807e-02 8.94357264e-02 9.14634168e-02 2.39856541e-01
      4.13787752e-01 0. 0. 4.70029685e-04 6.29708320e-02 4.60503213e-02
      2.21699178e-01 1.14464186e-01 4.13787752e-01 4.13787752e-01
      8.30901489e-02 0. 0. 0. 7.91991071e-04 7.75651587e-03
      3.19587812e-03 4.13787752e-01 1.96106285e-01 0. 0. 0.
      1.17682130e-03 1.46821712e-03 1.89161487e-02 2.17670426e-02
      2.17310131e-01 2.72861302e-01 1.33350743e-02 0. 0. 0. 0. 0.
      1.16779949e-04 2.72990584e-01 3.80160064e-01 3.80160064e-01 0. 0.
      0. 0. 0. 0. 3.80160064e-01 3.80160064e-01 3.80160064e-01
      9.93300527e-02 2.47425004e-03 1.05431094e-03 0. 0. 0.
      3.80160064e-01 2.06105456e-01 7.55309612e-02 0. 0. 0. 0. 0. 0.
      1.90925509e-01 1.24553524e-01 8.69851410e-02 4.67306748e-03 0.
      7.57239250e-05 0. 0. 0. 1.07048772e-01 3.87608856e-01
      3.87608856e-01 3.87608856e-01 7.85325319e-02 4.97839414e-02 0. 0.
      0. 3.87608856e-01 1.63559809e-01 3.87608856e-01 3.87608856e-01
      1.38732433e-01 9.17723328e-02 0. 0. 0. 7.96284974e-02
      1.07420668e-01 5.62203713e-02 1.78473350e-02 0. 5.68908581e-04 0.
      0. 0. 9.99112278e-02 1.02332691e-02 8.87483824e-03 4.11861530e-03
      0. 3.35138582e-04 0. 0. 0. 8.67524277e-03</_>
    <_>
      2.07326245e-02 3.56780402e-02 1.74257942e-02 0. 4.81211522e-04 0.
      0. 0. 1.11581339e-02 2.29884282e-01 1.89863354e-01 5.25034405e-02
      0. 7.97878776e-04 0. 0. 0. 8.82157534e-02 1.44783631e-01
      3.77525568e-01 3.77525568e-01 1.04763545e-01 1.64348967e-02 0. 0.
      0. 5.77810146e-02 3.77525568e-01 3.77525568e-01 3.77525568e-01
      5.99358231e-02 1.92541778e-02 0. 0. 0. 3.77525568e-01
      2.39442587e-01 1.06046490e-01 9.62538924e-03 0. 9.62208433e-05 0.
      0. 0. 1.27508655e-01 3.47049206e-01 3.47215459e-02 0. 0. 0. 0. 0.
      0. 2.94949085e-01 3.65614831e-01 3.65614831e-01 1.08295336e-01
      1.02619082e-03 1.93496991e-03 0. 0. 0. 3.65614831e-01
      3.65614831e-01 1.50476083e-01 2.87332223e-03 0. 4.65602607e-05 0.
      0. 4.33065509e-03 3.65614831e-01 2.83561707e-01 3.62619176e-04 0.
      0. 0. 0. 1.11881392e-02 5.28732240e-02 2.88232863e-01
      1.23084731e-01 0. 0. 0. 5.84942136e-05 7.63487595e-04
      5.70876822e-02 1.46269187e-01 1.83256999e-01 3.44376653e-01
      3.70994350e-03 0. 0. 3.92860908e-04 4.93277377e-03 4.65171784e-02
      2.18189940e-01 3.44376653e-01 3.30362290e-01 0. 0. 0.
      2.78312154e-02 6.37694299e-02 3.44376653e-01 3.44376653e-01
      3.44376653e-01 4.29690853e-02 0. 0. 0. 4.96029796e-04
      3.92689835e-03 1.20866284e-01 1.83345541e-01 1.33070692e-01
      8.15038162e-04 0. 0. 0. 2.25468102e-04 9.06207308e-04
      1.14731751e-02 5.87029429e-03 8.15038162e-04 1.30889118e-01 0. 0.
      0. 1.69079542e-01 2.93320358e-01 4.38029617e-01 4.38029617e-01
      4.26073194e-01 2.39289273e-03 0. 0. 0. 1.04632124e-01
      1.33747041e-01 4.28953707e-01 1.33335561e-01 2.39289273e-03
      7.15902448e-02 2.70805061e-01 2.70805061e-01 1.88114986e-01
      1.54395506e-01 6.24701614e-03 1.28633121e-03 0. 2.76794173e-02
      2.70805061e-01 2.70805061e-01 2.70805061e-01 1.46990567e-01
      8.32172781e-02 2.35468160e-05 0. 0. 1.29878655e-01 2.43186075e-02
      9.06364992e-02 2.70805061e-01 2.70805061e-01 2.70805061e-01
      2.21557319e-01 1.35833919e-01 1.27459504e-02 1.30832726e-02
      5.72134927e-02 1.35824382e-01 2.67210394e-01 2.61865050e-01
      2.17946902e-01 1.00492679e-01 5.78817166e-02 1.05049778e-02
      2.48715878e-02 4.02048439e-01 4.02048439e-01 2.76091069e-01
      3.56936008e-02 2.61484943e-02 0. 0. 0. 4.02048439e-01
      4.02048439e-01 1.83921441e-01 8.92147981e-03 0. 2.38350025e-04 0.
      0. 8.15565605e-03 4.02048439e-01 1.15817890e-01 1.41826704e-01
      1.08236320e-01 6.21956214e-02 5.41561469e-02 6.74881088e-03
      1.45422947e-02 4.69636824e-03 7.03600496e-02 1.00019395e-01
      1.52498558e-02 2.05880334e-03 0. 1.08340915e-04 0. 0.
      5.43710426e-04 8.99770558e-02 3.38082999e-01 3.77906836e-03 0. 0.
      1.83153653e-03 1.45520149e-02 5.94225973e-02 1.78120553e-01
      3.38082999e-01 2.09385499e-01 0. 0. 0. 2.07517698e-01
      1.83457777e-01 3.38082999e-01 3.38082999e-01 3.38082999e-01
      5.17567173e-02 1.12021482e-03 9.81836813e-04 0. 1.51919865e-03
      5.97784668e-03 1.91502292e-02 2.11024638e-02 5.97150624e-02
      3.04167140e-02 2.08820775e-02 7.24509954e-02 2.15776288e-03
      3.38082999e-01 1.21621452e-01 3.38082999e-01 1.00525349e-01
      4.31521460e-02 2.06470154e-02 0. 0. 0. 3.48346025e-01
      2.68765777e-01 3.74880135e-01 2.52911985e-01 5.97370230e-02
      4.95214306e-04 0. 0. 0. 2.24559918e-01 1.76918909e-01
      2.10671619e-01 4.76571359e-02 4.95214306e-04 4.00353828e-03
      1.21921143e-02 5.56641109e-02 3.14032920e-02 3.74880135e-01
      2.27194905e-01 2.93678492e-01 5.26729897e-02 5.65477135e-03
      1.48087362e-04 3.96255346e-04 7.88979791e-03 3.65543328e-02
      3.74880135e-01 1.76628873e-01 8.42232630e-02 1.08691733e-02
      1.48087362e-04 1.10182855e-02 2.09956161e-05 4.59871627e-02
      8.58591273e-02 2.81231135e-01 2.81231135e-01 2.81231135e-01
      1.17376648e-01 2.67295036e-02 6.41939193e-02 4.84514248e-06
      4.37721871e-02 7.95195848e-02 1.45635128e-01 1.67909667e-01
      2.61367649e-01 2.41951033e-01 1.70617625e-01 4.18672003e-02 0. 0.
      2.99268315e-04 1.27686724e-01 1.55162096e-01 2.81231135e-01
      2.65763134e-01 1.42475754e-01 2.49436632e-01 0. 0. 5.22524124e-06
      4.52503227e-02 6.63202927e-02 2.81231135e-01 2.81231135e-01
      2.81231135e-01 1.63190737e-01 0. 4.02749982e-03 8.43674596e-03
      1.52423186e-02 7.09080184e-03 4.31942083e-02 1.29543394e-01
      2.63600409e-01 2.73145497e-01 2.03733966e-02 0. 0. 2.77974345e-06
      0. 0. 5.51457889e-03 2.85424948e-01 3.87269288e-01 0. 0. 0.
      3.24744079e-03 2.29800399e-03 1.05205931e-01 3.31229508e-01
      3.87269288e-01 3.87269288e-01 5.93970530e-02 0. 0. 4.16961520e-05
      0. 0. 1.55242048e-02 3.87269288e-01 1.84262067e-01 1.26201808e-01
      3.14457878e-03 0. 1.20857418e-04 0. 0. 0. 1.73945934e-01
      1.64423898e-01 3.01763296e-01 2.11852655e-01 7.82134943e-03
      3.10911268e-01 9.59498063e-03 8.84933397e-03 7.89620317e-05
      1.07167996e-01 3.10911268e-01 3.10911268e-01 6.85016066e-03 0. 0.
      0. 0. 0. 3.10911268e-01 3.10911268e-01 3.10911268e-01
      2.64093071e-01 7.39556784e-03 5.91141991e-02 3.80305428e-04
      5.19823865e-04 1.73716457e-04 2.97852010e-01 7.46860504e-02
      2.04167306e-01 3.40330392e-01 1.59795105e-01 3.40330392e-01
      3.10781021e-02 1.43873524e-02 1.04261628e-04 3.46752293e-02
      4.71530249e-03 2.38761790e-02 1.39200509e-01 1.81941554e-01
      3.40330392e-01 2.39384025e-02 4.25384613e-03 6.95077551e-06
      2.45996215e-03 3.30402762e-01 3.40330392e-01 3.40330392e-01
      1.28368169e-01 2.12754130e-01 8.27915326e-04 6.86376530e-04
      2.29375582e-04 1.00554079e-01 3.15647461e-02 7.38550052e-02
      2.34195992e-01 1.42815322e-01 1.60742909e-01 1.91057377e-04
      4.57584392e-05 1.52917055e-05 8.97531118e-03 9.79027674e-02 0. 0.
      0. 5.97139485e-02 5.22425734e-02 3.51177722e-01 3.84578317e-01
      2.94899732e-01 3.88321370e-01 0. 0. 0. 1.82377230e-02
      1.83147304e-02 3.88321370e-01 3.88321370e-01 3.88321370e-01
      4.95249359e-03 0. 0. 0. 1.13878581e-04 0. 1.20224187e-03
      3.97756603e-03 5.67986257e-03 8.95846859e-02 0. 0. 0.
      4.93473897e-04 0. 1.80336293e-02 3.33076641e-02 9.31245536e-02
      4.54911053e-01 0. 0. 0. 1.15269329e-03 0. 1.18901126e-01
      2.80531287e-01 4.54911053e-01 4.54911053e-01 4.49098535e-02 0. 0.
      4.62134667e-05 0. 0. 1.17894309e-02 4.54911053e-01 1.10153042e-01
      0. 0. 0. 1.06036423e-04 0. 6.38882862e-03 1.24378065e-02
      1.11056902e-01 1.56546026e-01 1.77563762e-03 0. 0. 0. 0. 0.
      4.78963368e-04 1.53344065e-01 3.96359175e-01 3.96359175e-01
      8.24925210e-03 0. 0. 0. 0. 0. 3.96359175e-01 3.96359175e-01
      3.96359175e-01 1.52054653e-01 1.11048250e-03 1.49463839e-03 0.
      2.84929672e-04 9.52187402e-05 3.89648646e-01 1.28226683e-01
      2.04842240e-02 2.45722738e-04 0. 0. 0. 0. 0. 1.14468649e-01
      5.75837530e-02 2.62141768e-02 3.15929239e-04 0. 0. 0. 0. 0.
      3.93839255e-02 4.69892800e-01 4.69892800e-01 4.69892800e-01
      5.37018925e-02 5.23709953e-02 0. 1.18170830e-03 3.94907140e-04
      3.57607394e-01 1.23281121e-01 1.87295228e-01 3.74515593e-01
      5.85610904e-02 5.35230264e-02 0. 7.87805475e-05 2.63271431e-05
      2.54894346e-02 3.70947942e-02 1.52289234e-02 1.77326408e-04 0. 0.
      0. 0. 0. 1.74989551e-02 3.00810963e-04 0. 0. 0. 0. 0. 0. 0.
      1.92234933e-04</_>
    <_>
      2.12676488e-02 6.08614311e-02 3.00414488e-02 0. 1.63587613e-03 0.
      0. 0. 1.28932064e-02 2.38001809e-01 2.56017715e-01 4.95957993e-02
      0. 1.07054110e-03 0. 0. 0. 1.33907884e-01 9.18418542e-02
      3.13685507e-01 3.44297081e-01 1.24660492e-01 2.59971708e-01
      9.50997230e-03 6.74283598e-03 2.21916079e-03 5.78998737e-02
      3.44297081e-01 3.44297081e-01 3.44297081e-01 5.69388680e-02
      2.40436524e-01 2.30728164e-02 3.03100124e-02 9.61636286e-03
      3.44297081e-01 2.62928188e-01 1.15039356e-01 5.18453261e-03 0.
      4.95004351e-05 0. 0. 0. 1.46154612e-01 3.53704453e-01
      7.94357285e-02 0. 0. 0. 0. 0. 0. 2.76505947e-01 3.53704453e-01
      3.53704453e-01 3.66821513e-02 0. 2.22977921e-02 5.90885896e-03
      6.57824241e-03 2.02070177e-03 3.53704453e-01 3.53704453e-01
      2.39543214e-01 0. 0. 0. 0. 0. 0. 3.53704453e-01 3.19463283e-01
      1.76621135e-02 0. 0. 0. 0. 0. 8.01640376e-03 3.09066415e-01
      2.12502286e-01 0. 0. 0. 0. 0. 2.85634026e-02 1.22038111e-01
      3.28006387e-01 3.50244582e-01 4.07866985e-02 0. 0. 0. 0.
      2.55866395e-03 2.85815354e-02 3.50244582e-01 3.50244582e-01 0. 0.
      0. 0. 0. 1.19363159e-01 3.50244582e-01 3.50244582e-01
      9.57103670e-02 0. 0. 0. 4.75076649e-06 8.18644010e-04
      8.94709602e-02 1.89511850e-01 2.67146647e-01 2.36581974e-02 0. 0.
      0. 7.12615001e-05 1.80101697e-03 5.40119298e-02 5.27242012e-02
      6.32164776e-02 3.35845590e-01 8.51898149e-05 2.54919403e-04 0.
      7.12615001e-05 3.54745775e-03 3.63406152e-01 3.63406152e-01
      3.63406152e-01 8.58764201e-02 1.87417565e-04 5.60822664e-04 0.
      1.61885917e-02 3.84043194e-02 3.63406152e-01 3.63406152e-01
      2.81828582e-01 2.33024452e-02 8.32536668e-02 2.00708911e-01
      9.04412642e-02 3.40466172e-01 7.46222511e-02 9.91078094e-02
      2.01883428e-02 1.59565527e-02 2.71536559e-01 3.11254442e-01
      2.02406794e-01 4.17219736e-02 3.40466172e-01 1.55476704e-01
      1.67468578e-01 3.42803784e-02 1.60094127e-01 1.22458162e-03
      3.78606422e-03 1.35989171e-02 2.09571682e-02 3.40466172e-01
      1.04897261e-01 2.05638349e-01 4.84879389e-02 8.93394870e-04
      3.21415029e-02 3.00329532e-02 1.56451426e-02 1.06595578e-02
      3.40466172e-01 2.20449075e-01 2.41813228e-01 5.21850400e-02
      1.49380872e-02 3.64969581e-01 3.64969581e-01 4.65354174e-02
      8.59278662e-05 2.17563450e-01 1.30859271e-01 9.14655402e-02
      1.54972514e-02 3.64969581e-01 3.64969581e-01 2.49836549e-01 0. 0.
      4.00582096e-03 0. 0. 0. 3.64969581e-01 7.94739202e-02
      4.41880375e-02 6.17277529e-03 3.72354116e-04 3.64969581e-01
      1.90487385e-01 9.20195505e-02 1.20676896e-02 4.54505123e-02
      4.88757826e-02 1.48640843e-02 0. 0. 2.08304655e-02 0. 0. 0.
      3.40254344e-02 4.30218667e-01 5.36292717e-02 0. 0. 0. 0.
      6.48744311e-03 4.92051877e-02 4.30218667e-01 4.30218667e-01 0. 0.
      0. 0. 0. 2.10538998e-01 4.30218667e-01 4.30218667e-01
      3.54126021e-02 3.05580697e-03 0. 0. 0. 0. 4.32496250e-04
      3.02099087e-03 3.60517651e-02 3.39695066e-02 0. 0. 0. 0. 0.
      3.11547332e-02 7.40741715e-02 1.02039568e-01 1.23360008e-01
      9.11941897e-05 2.72886769e-04 0. 2.13629398e-02 2.57036984e-02
      3.20262253e-01 3.20262253e-01 3.20262253e-01 3.03040184e-02
      2.00627226e-04 6.00350846e-04 0. 1.62805200e-01 2.10835621e-01
      3.20262253e-01 3.20262253e-01 1.18405581e-01 1.14818700e-02
      4.91339772e-04 5.20932116e-03 4.54322668e-03 9.19340700e-02
      7.63666928e-02 1.81378931e-01 9.73824784e-02 4.39849272e-02
      4.26134979e-03 1.08094758e-03 1.94371380e-02 2.38422919e-02
      3.20262253e-01 3.20262253e-01 3.20262253e-01 1.18224017e-01
      1.74227841e-02 1.13831542e-03 2.50605099e-05 7.49903120e-05
      4.66594676e-04 3.60767126e-01 4.94088791e-02 1.08442597e-01
      2.34499685e-02 1.28928153e-03 3.46083902e-02 1.08595545e-04
      3.24958062e-04 5.99907362e-04 3.60767126e-01 1.69132471e-01
      1.68137580e-01 1.23478942e-01 3.71249616e-02 8.45885184e-03
      5.51331250e-05 1.64978686e-04 0. 3.24582398e-01 4.32768203e-02
      2.06031755e-01 7.92351589e-02 1.07233413e-02 1.64865106e-01
      2.38910216e-04 7.14907655e-04 0. 3.60767126e-01 1.49622053e-01
      3.60767126e-01 3.60767126e-01 2.24652961e-01 1.13998808e-01
      4.31784283e-05 1.29205830e-04 8.77494749e-05 3.51742089e-01
      8.95838439e-02 5.77230193e-02 1.68806210e-01 1.10727355e-01
      2.01208830e-01 0. 0. 0. 1.18713174e-02 0. 1.75660965e-03
      7.21027106e-02 1.99022651e-01 3.51742089e-01 9.49925379e-05
      2.84252776e-04 0. 1.42648265e-01 7.42341429e-02 1.89513758e-01
      3.51742089e-01 3.51742089e-01 3.51742089e-01 0. 0. 0.
      3.29548935e-03 0. 2.25849822e-03 2.04482436e-01 3.51742089e-01
      2.09382147e-01 1.50417201e-02 0. 0. 0. 0. 0. 5.56268636e-03
      2.08670780e-01 2.32459277e-01 1.04168989e-01 0. 0. 0. 0.
      1.69826562e-05 5.67530469e-06 2.36459389e-01 4.15451854e-01
      4.13738303e-02 0. 0. 0. 0. 0. 1.43885352e-02 4.15451854e-01
      4.15451854e-01 3.08361769e-01 0. 0. 0. 0. 0. 0. 4.15451854e-01
      1.71217769e-01 1.12617798e-01 4.23550904e-02 1.29980370e-02
      6.95970654e-02 2.99872588e-02 1.46394325e-02 1.45491527e-03
      1.45984203e-01 1.04329750e-01 1.37628719e-01 2.11040467e-01
      1.04990885e-01 3.09996456e-01 1.78898126e-01 6.69493675e-02
      3.17310332e-03 6.08140081e-02 3.09996456e-01 3.09996456e-01
      6.50424212e-02 6.88462099e-03 1.53519083e-02 6.23386353e-04 0. 0.
      3.09996456e-01 3.09996456e-01 3.09996456e-01 3.09996456e-01
      8.95177647e-02 2.23099411e-01 3.93946143e-03 0. 0. 2.55121350e-01
      2.55811531e-02 5.74355581e-05 1.71868422e-04 0. 1.36981934e-01
      3.38681266e-02 3.79747838e-01 2.26010412e-01 3.19937356e-02
      4.26229060e-01 2.48887431e-04 7.44763238e-04 0. 1.36195615e-01
      7.55416676e-02 4.26229060e-01 4.26229060e-01 4.26229060e-01
      1.50572276e-03 0. 0. 0. 1.54345238e-04 0. 1.67918706e-03
      5.69055649e-03 1.50572276e-03 9.31861028e-02 0. 0. 0.
      6.68829423e-04 0. 2.46573593e-02 6.19909689e-02 1.21441752e-01
      4.05005038e-01 3.52737879e-05 1.05552223e-04 0. 4.86310059e-03
      1.02914795e-02 1.69098198e-01 4.05005038e-01 4.05005038e-01
      4.05005038e-01 0. 0. 0. 4.13121670e-05 0. 5.08668774e-04
      1.85246766e-01 4.05005038e-01 8.39407295e-02 0. 0. 0.
      9.47904336e-05 0. 5.74178481e-03 4.36467379e-02 1.29036039e-01
      1.90290838e-01 0. 0. 0. 0. 0. 0. 2.83903833e-02 2.23869249e-01
      4.42159027e-01 3.03594545e-02 0. 0. 0. 0. 0. 9.05712601e-03
      4.42159027e-01 4.42159027e-01 2.61083931e-01 0. 0. 0. 0. 0. 0.
      4.42159027e-01 1.98557377e-01 4.54716524e-03 0. 0. 0. 0. 0.
      1.18077616e-03 1.95345670e-01 2.05202192e-01 4.29402851e-02 0. 0.
      0. 0. 0. 0. 1.51120618e-01 3.68388623e-01 3.68388623e-01
      5.29909395e-02 0. 4.76805551e-04 0. 0. 0. 3.68388623e-01
      3.68388623e-01 3.68388623e-01 3.67123663e-01 1.70259457e-02
      1.96049269e-02 0. 0. 0. 3.68388623e-01 1.56242758e-01
      4.02115732e-02 2.44705635e-03 0. 0. 0. 0. 0. 1.03036135e-01
      6.23088591e-02 2.49461625e-02 5.38352365e-03 0. 6.48139248e-05 0.
      0. 0. 5.11021167e-02</_>
    <_>
      2.75547709e-03 4.39926237e-03 1.36025634e-03 0. 2.12285056e-04 0.
      0. 0. 1.84680754e-03 1.20819978e-01 9.39008445e-02 3.19762863e-02
      0. 6.41820428e-04 0. 0. 0. 4.87549976e-02 2.12089166e-01
      1.91852957e-01 4.26795274e-01 1.41259223e-01 4.58883159e-02 0. 0.
      0. 1.93517879e-02 4.29785490e-01 4.29785490e-01 4.29785490e-01
      1.25661239e-01 2.98166927e-02 0. 0. 0. 3.34148705e-01
      1.27353683e-01 6.93820864e-02 1.82634760e-02 0. 8.70123622e-05 0.
      0. 0. 9.49819982e-02 2.42396981e-01 3.03480979e-02 5.95774455e-03
      0. 0. 0. 0. 0. 2.39125684e-01 3.88454646e-01 3.88454646e-01
      2.22017214e-01 4.33641626e-03 1.45066646e-03 0. 0. 0.
      3.88454646e-01 3.88454646e-01 2.10103005e-01 2.99412105e-02 0.
      3.97045551e-05 0. 0. 0. 3.88454646e-01 2.21781954e-01 0. 0. 0. 0.
      0. 0. 1.93010492e-03 2.21726626e-01 1.90829486e-01 0. 0. 0. 0. 0.
      1.23778125e-02 5.66678792e-02 2.05898091e-01 4.08291399e-01
      2.13275175e-03 0. 0. 0. 0. 0. 1.20320255e-02 4.08291399e-01
      4.08291399e-01 0. 0. 0. 2.32259603e-03 1.28895044e-02
      9.28792506e-02 3.73682231e-01 4.08291399e-01 1.23547390e-01 0. 0.
      0. 1.47578935e-03 0. 3.32053341e-02 1.06684990e-01 1.90037146e-01
      2.00747643e-02 0. 0. 0. 3.24673648e-03 0. 1.41609404e-02
      2.09092796e-02 4.68295701e-02 3.57057512e-01 0. 0. 0.
      1.10756315e-01 1.72731102e-01 3.57057512e-01 3.57057512e-01
      3.57057512e-01 1.05096720e-01 0. 0. 0. 2.52423823e-01
      2.26108700e-01 3.57057512e-01 2.18038604e-01 2.76299536e-01
      7.23650455e-02 8.60134214e-02 2.66665727e-01 1.96017087e-01
      1.23356760e-01 1.83210783e-02 4.82330518e-03 0. 3.95593978e-03
      2.66665727e-01 2.66665727e-01 2.66665727e-01 1.99876353e-01
      1.76941440e-01 1.36857377e-02 1.64982560e-03 0. 7.68634751e-02
      1.05185835e-02 3.61678489e-02 2.29169205e-01 2.12971285e-01
      2.66665727e-01 2.25512341e-01 2.12379202e-01 9.13635734e-03
      3.93381895e-04 1.02004059e-01 9.49256942e-02 2.40829840e-01
      2.66665727e-01 2.66665727e-01 1.87071905e-01 2.16006771e-01
      2.66146865e-02 2.09432263e-02 3.46420854e-01 3.46420854e-01
      2.81452298e-01 6.32799864e-02 7.56468922e-02 5.08324848e-03 0. 0.
      3.36582750e-01 3.46420854e-01 2.11107537e-01 2.20409483e-02 0.
      7.47734521e-05 0. 0. 0. 3.46420854e-01 1.94757238e-01
      1.54174015e-01 1.10829122e-01 1.15967795e-01 3.06704760e-01
      6.70668334e-02 9.47683156e-02 2.09657233e-02 8.53449404e-02
      1.92091152e-01 5.08449674e-02 5.42380754e-03 0. 1.06552834e-04 0.
      1.57065922e-03 4.98837093e-04 1.64265469e-01 3.67711842e-01
      4.07673186e-03 0. 0. 0. 0. 0. 1.05790421e-02 3.67711842e-01
      3.67711842e-01 0. 0. 4.31458373e-03 1.24367565e-01 5.99625818e-02
      1.30664170e-01 3.41958672e-01 3.67711842e-01 1.87636748e-01
      6.21554255e-03 1.63096038e-03 0. 7.59193790e-05 0. 0.
      1.61810650e-03 1.82710320e-01 1.82259083e-01 8.36752579e-02
      7.64973238e-02 7.10008591e-02 3.67711842e-01 4.31536064e-02
      4.90954779e-02 5.64599186e-02 1.99599326e-01 1.70736417e-01 0. 0.
      7.32655171e-03 3.53050411e-01 1.58032775e-01 3.07140499e-01
      2.29991615e-01 2.94592708e-01 2.19399855e-02 0. 0. 3.33025074e-03
      3.58093292e-01 1.61363378e-01 3.10660243e-01 5.56634255e-02
      5.68801686e-02 4.18417193e-02 4.91497815e-02 9.52536762e-02
      1.24152392e-01 3.58093292e-01 8.24111998e-02 9.17327628e-02
      3.31541486e-02 5.63982278e-02 2.68545118e-03 8.52387119e-03
      7.00137913e-02 7.50095248e-02 3.58093292e-01 6.54000640e-02
      8.04111660e-02 3.29748914e-03 3.71145597e-03 2.99055740e-04
      3.08113825e-03 2.87808273e-02 3.78302820e-02 2.70524174e-01
      2.46054739e-01 3.33119363e-01 6.30292669e-02 2.99055740e-04
      1.65918637e-02 1.52283511e-03 1.47321131e-02 7.94612691e-02
      3.33119363e-01 2.43238732e-01 3.33119363e-01 2.15696260e-01
      9.14939120e-02 1.62859436e-03 0. 0. 0. 4.03888859e-02
      4.62430306e-02 3.33119363e-01 8.09990764e-02 1.62859436e-03
      5.68404533e-02 3.37803678e-04 1.01083517e-03 0. 5.02259508e-02
      5.37171513e-02 3.33119363e-01 3.33119363e-01 2.25934684e-01
      8.50558355e-02 2.49781413e-03 1.73333206e-03 2.64835227e-02
      1.21860005e-01 5.91004714e-02 3.07754695e-01 1.80845767e-01
      1.78577185e-01 1.93657994e-01 1.43244162e-01 5.18693414e-05 0.
      1.24443148e-04 0. 3.15587819e-02 7.21781254e-02 2.01815411e-01
      2.81360358e-01 5.97619126e-03 1.21668109e-03 0. 1.13350069e-02
      1.35900360e-02 3.07754695e-01 3.07754695e-01 3.07754695e-01
      3.07754695e-01 3.07754695e-01 5.22492640e-02 0. 5.47259115e-05 0.
      4.37507778e-02 2.32240453e-01 3.07754695e-01 2.09303260e-01
      1.88410416e-01 5.59974601e-03 0. 1.32205125e-04 0. 0.
      3.57955904e-03 2.05134034e-01 2.43284717e-01 3.09186012e-01
      1.75564677e-01 6.17764182e-02 1.02545269e-01 1.06815860e-04 0. 0.
      1.83573246e-01 3.09186012e-01 3.09186012e-01 7.88415372e-02 0.
      6.00932399e-05 0. 0. 8.44105240e-03 3.09186012e-01 3.09186012e-01
      3.09186012e-01 2.48570099e-01 1.35194324e-02 3.10377241e-03 0. 0.
      0. 3.09186012e-01 1.20693393e-01 3.05879921e-01 3.05879921e-01
      2.03944191e-01 3.05879921e-01 2.03045638e-04 0. 0. 6.61666766e-02
      1.01133930e-02 1.10622443e-01 3.05879921e-01 1.34749100e-01
      3.05879921e-01 4.68566905e-05 0. 0. 7.14507140e-03 3.02757293e-01
      3.05879921e-01 3.05879921e-01 4.73268926e-02 3.49067748e-02 0. 0.
      0. 1.37887791e-01 2.60887109e-02 1.80646956e-01 3.05879921e-01
      3.57040055e-02 9.13391635e-02 0. 0. 0. 1.70965642e-02
      7.75337871e-03 0. 0. 0. 8.95973016e-03 0. 3.21967155e-01
      1.27476513e-01 7.75337871e-03 2.61474341e-01 7.50486273e-04
      2.24573724e-03 0. 6.79552509e-03 0. 5.16406119e-01 5.16406119e-01
      5.16406119e-01 3.63760082e-05 0. 0. 0. 0. 0. 0. 0. 3.63760082e-05
      2.99548749e-02 0. 0. 0. 0. 0. 4.57300426e-04 4.46424335e-02
      5.82415797e-02 3.79063457e-01 3.64622450e-03 8.06425000e-04 0. 0.
      0. 2.80944496e-01 3.79063457e-01 3.79063457e-01 3.79063457e-01
      2.73446888e-01 1.14823453e-01 0. 0. 0. 1.93276443e-02
      2.64513671e-01 3.79063457e-01 5.48008308e-02 5.48474818e-05 0. 0.
      0. 0. 3.31023417e-04 2.80173905e-02 6.97442368e-02 1.27078295e-01
      1.13842441e-02 7.64551852e-03 0. 0. 0. 1.50465174e-04
      1.31690800e-02 1.23944342e-01 3.85464579e-01 3.85464579e-01
      1.94785088e-01 0. 0. 0. 0. 6.48436649e-03 3.85464579e-01
      3.85464579e-01 3.85464579e-01 2.31297120e-01 0. 1.59107352e-04 0.
      0. 0. 3.85464579e-01 8.32864270e-02 1.68388002e-02 1.14330025e-02
      0. 0. 0. 0. 1.05324107e-04 6.72120377e-02 2.76109334e-02
      2.72042397e-03 1.73575850e-03 0. 0. 0. 0. 0. 2.29923055e-02
      4.30488020e-01 4.30488020e-01 4.30488020e-01 0. 7.48695980e-04 0.
      0. 0. 4.30488020e-01 8.47429857e-02 3.44391823e-01 3.54052365e-01
      0. 7.69956911e-04 0. 0. 0. 5.20266742e-02 1.69112608e-02 0. 0. 0.
      0. 0. 0. 0. 1.69112608e-02 0. 0. 0. 0. 0. 0. 0. 0. 0.</_>
    <_>
      1.17465248e-02 7.88851269e-03 7.27168610e-03 5.69480995e-04 0. 0.
      0. 0. 7.39907240e-03 1.81124493e-01 9.94283259e-02 5.75788245e-02
      7.32189801e-04 0. 0. 0. 0. 6.74436018e-02 7.62890130e-02
      2.82426894e-01 4.21451241e-01 1.54499225e-02 2.90214866e-02 0. 0.
      0. 4.50906791e-02 4.21451241e-01 4.21451241e-01 4.21451241e-01
      1.80751923e-02 1.18442578e-02 0. 0. 0. 3.81148964e-01
      1.86719209e-01 8.15630630e-02 2.48711705e-02 4.54978072e-05 0. 0.
      0. 0. 8.59434977e-02 2.99533337e-01 4.43641655e-02 3.41234892e-03
      0. 0. 0. 0. 2.67755589e-03 2.49057561e-01 3.76734048e-01
      3.76734048e-01 2.28890240e-01 1.42832636e-03 0. 0. 0. 0.
      3.76734048e-01 3.76734048e-01 1.73558563e-01 2.78522260e-02 0. 0.
      0. 0. 6.63447101e-03 3.76734048e-01 2.14787200e-01 1.68845057e-03
      0. 0. 0. 0. 9.36783035e-04 4.15230431e-02 2.65070170e-01
      1.13502875e-01 0. 0. 0. 6.16090765e-05 4.46679071e-04
      3.68866026e-02 8.37466642e-02 2.05557719e-01 3.61785144e-01
      4.18365514e-03 0. 0. 3.35785880e-05 0. 7.33785285e-03
      1.71015844e-01 3.61785144e-01 3.61785144e-01 8.17682521e-05
      2.44680850e-04 0. 3.54317972e-03 9.44719277e-03 3.61785144e-01
      3.61785144e-01 3.61785144e-01 7.87014887e-02 0. 0. 0.
      4.68581042e-04 2.06057448e-03 1.00048043e-01 9.81333330e-02
      1.45635188e-01 8.54476006e-04 0. 0. 0. 2.12991377e-04
      4.75517212e-04 1.02140503e-02 4.33935039e-03 7.49840820e-03
      2.61546612e-01 3.77204997e-04 1.12873677e-03 0. 8.21012557e-02
      1.38732269e-01 4.36227798e-01 4.36227798e-01 4.36227798e-01
      7.87259825e-03 8.70473013e-05 2.60477711e-04 0. 1.20915398e-01
      1.32288396e-01 4.36227798e-01 1.96384713e-01 1.48628309e-01
      2.10885536e-02 1.63782775e-01 2.81544924e-01 7.23354071e-02
      1.62550837e-01 1.43787237e-02 1.09064700e-02 1.82310573e-03
      1.41367139e-02 2.28260040e-01 2.81544924e-01 2.81544924e-01
      9.56962928e-02 9.55643654e-02 6.71034353e-03 2.51687714e-03
      4.20716737e-04 9.92406309e-02 6.24108315e-03 7.63008446e-02
      2.58530259e-01 1.38787851e-01 2.81544924e-01 1.85890585e-01
      2.81544924e-01 6.30785376e-02 5.43559343e-03 4.06876914e-02
      1.67664692e-01 2.81544924e-01 1.97445244e-01 2.81544924e-01
      1.07419848e-01 2.81544924e-01 1.08757071e-01 2.56146342e-02
      3.47044528e-01 3.47044528e-01 3.47044528e-01 3.21006402e-02
      2.92442087e-02 1.36359001e-03 0. 0. 3.47044528e-01 3.47044528e-01
      1.81425363e-01 3.56076546e-02 0. 0. 0. 0. 3.22184525e-03
      3.47044528e-01 1.32137954e-01 1.99592769e-01 1.64872482e-01
      6.71599433e-02 1.06505632e-01 2.04538498e-02 2.26405159e-01
      8.17273855e-02 9.10901576e-02 2.03301966e-01 4.93185744e-02
      7.41828186e-03 0. 0. 0. 6.65270071e-03 4.28718841e-03
      1.64139211e-01 3.25871170e-01 1.86129124e-03 0. 0. 1.74825051e-04
      0. 1.10419514e-02 1.72833458e-01 3.25871170e-01 3.02674621e-01
      1.56614304e-04 4.68647922e-04 7.16901908e-04 8.89346898e-02
      6.83314353e-02 3.25871170e-01 3.25871170e-01 3.25871170e-01
      1.78964570e-01 4.05621864e-02 0. 0. 1.35975031e-04 0.
      3.89033835e-03 3.46150436e-02 1.51335523e-01 2.02458248e-01
      1.41491473e-01 4.05447260e-02 5.12418188e-02 2.39815637e-01
      1.30858615e-01 2.73101509e-01 1.58870012e-01 1.84575260e-01
      3.99442762e-02 1.79421622e-04 5.36895765e-04 1.13029138e-03
      2.12106556e-01 2.09716007e-01 2.86321998e-01 2.82007515e-01
      2.06113577e-01 2.75661401e-03 4.14049864e-05 1.23899023e-04
      5.42969967e-04 2.23705247e-01 2.18383551e-01 2.86321998e-01
      6.46400750e-02 3.20520401e-02 5.53724542e-02 8.24677870e-02
      8.46320093e-02 1.16448551e-01 2.86321998e-01 2.86321998e-01
      2.86321998e-01 8.33759382e-02 5.31354621e-02 4.04167408e-03
      1.95700470e-02 7.62560293e-02 8.89644995e-02 2.86321998e-01
      2.86321998e-01 2.30356023e-01 1.33628631e-02 3.65921436e-03
      6.15584617e-03 1.48341025e-03 1.47702210e-02 3.83339263e-02
      2.65065342e-01 2.04566613e-01 3.28282565e-01 1.53604120e-01
      6.46405714e-03 7.35523477e-02 4.63558454e-03 1.46764526e-02
      5.89809678e-02 2.06728637e-01 1.15558498e-01 3.28282565e-01
      3.28282565e-01 9.42430496e-02 8.20698310e-03 0. 0. 0.
      2.85913292e-02 4.31567989e-02 3.08038831e-01 1.20800987e-01
      1.28301531e-02 1.54631436e-01 2.01638773e-04 6.03380147e-04 0.
      3.22187766e-02 3.45321707e-02 3.28282565e-01 3.28282565e-01
      3.28282565e-01 2.15690792e-01 1.37701607e-03 3.24032689e-03
      1.02323722e-02 2.89727468e-02 8.78982805e-03 3.28387320e-01
      1.49259508e-01 2.31644571e-01 3.28387320e-01 2.64006313e-02
      1.49685175e-05 0. 0. 0. 1.53287882e-02 1.02456156e-02
      3.28387320e-01 3.28387320e-01 1.65072895e-04 4.93961037e-04 0.
      6.29239390e-03 3.34704225e-03 2.57333398e-01 2.17761397e-01
      3.28387320e-01 3.28387320e-01 5.68972006e-02 3.29307368e-05 0. 0.
      0. 1.08563025e-02 1.65417008e-02 3.28387320e-01 3.18049192e-01
      1.29609913e-01 0. 0. 0. 0. 4.66282791e-06 1.55823523e-06
      2.56623089e-01 3.18049192e-01 3.18049192e-01 6.50718436e-02
      3.78927998e-02 6.43550158e-02 2.39998866e-02 1.81222986e-02
      1.71581737e-03 1.96145177e-01 3.18049192e-01 2.30257526e-01 0. 0.
      0. 0. 0. 0. 3.18049192e-01 3.18049192e-01 3.18049192e-01
      5.18087596e-02 5.20760706e-03 1.95299857e-03 4.94730230e-05 0. 0.
      3.18049192e-01 2.76149362e-01 2.76149362e-01 2.76149362e-01
      2.00581059e-01 2.76149362e-01 1.26173943e-01 7.80833289e-02
      3.80020170e-03 1.21525504e-01 5.78379817e-02 1.60015374e-01
      2.76149362e-01 1.94716975e-01 2.76149362e-01 1.35014147e-01
      7.12861344e-02 8.72536562e-04 1.76479649e-02 2.76149362e-01
      2.76149362e-01 2.65999377e-01 5.05170077e-02 4.11893204e-02
      2.21857161e-04 0. 0. 1.84612885e-01 9.60598812e-02 1.79865554e-01
      2.33190507e-01 7.42621720e-02 9.07356218e-02 5.07945777e-04 0. 0.
      2.93485429e-02 1.71365086e-02 0. 0. 0. 7.64110358e-03
      2.27530338e-02 2.92199194e-01 1.72756672e-01 4.44542095e-02
      4.67437267e-01 4.38312651e-04 1.31159869e-03 0. 2.85246000e-02
      4.34455425e-02 4.67437267e-01 4.67437267e-01 4.67437267e-01 0. 0.
      0. 0. 0. 0. 0. 0. 0. 1.68281198e-02 0. 0. 0. 0. 0. 0. 0.
      1.68281198e-02 4.67186123e-01 1.49718777e-04 4.48015693e-04 0.
      3.47618433e-03 3.03571927e-03 1.44091576e-01 2.99777180e-01
      4.67186123e-01 4.67186123e-01 9.45461541e-02 2.98677132e-05 0. 0.
      0. 0. 2.31518522e-02 4.67186123e-01 1.78856440e-02 0. 0. 0. 0. 0.
      0. 0. 1.78856440e-02 2.75422577e-02 0. 0. 0. 0. 0. 0. 0.
      2.75422577e-02 4.16827530e-01 3.53591263e-01 0. 0. 0. 0. 0. 0.
      4.16827530e-01 4.16827530e-01 4.16827530e-01 3.91973741e-02 0. 0.
      0. 0. 0. 4.16827530e-01 1.64005402e-02 0. 0. 0. 0. 0. 0. 0.
      1.64005402e-02 2.11346708e-03 0. 0. 0. 0. 0. 0. 0. 2.11346708e-03
      4.53948826e-01 4.53948826e-01 3.80590320e-01 0. 1.25893382e-02 0.
      0. 0. 4.53948826e-01 2.50368446e-01 3.46406579e-01 2.02932119e-01
      0. 2.82708816e-02 0. 0. 0. 8.71027261e-02 1.06858177e-04 0. 0. 0.
      0. 0. 0. 0. 1.06858177e-04 0. 0. 0. 0. 0. 0. 0. 0. 0.</_>
    <_>
      1.05746949e-05 0. 0. 0. 0. 0. 0. 0. 1.05746949e-05 1.10256122e-02
      0. 0. 0. 0. 0. 0. 0. 1.10256122e-02 1.88088775e-01 2.20268190e-01
      2.87834346e-01 5.00746407e-02 1.47805654e-03 0. 0. 0.
      2.42715832e-02 4.53834206e-01 4.53834206e-01 4.53834206e-01
      3.89469452e-02 1.41374837e-03 0. 0. 0. 4.53834206e-01
      1.49130486e-02 0. 0. 0. 0. 0. 0. 0. 1.49130486e-02 2.56158859e-02
      0. 0. 0. 0. 0. 0. 0. 2.56158859e-02 4.44270939e-01 4.44270939e-01
      6.55744746e-02 0. 1.13530361e-04 0. 0. 0. 4.44270939e-01
      4.44270939e-01 5.12026437e-02 0. 0. 0. 0. 0. 0. 4.44270939e-01
      2.31784750e-02 0. 0. 0. 0. 0. 0. 0. 2.31784750e-02 1.37006594e-02
      0. 0. 0. 0. 0. 0. 0. 1.37006594e-02 4.40520734e-01 0. 0. 0. 0. 0.
      0. 8.49649012e-02 4.40520734e-01 4.40520734e-01 0. 0. 0. 0.
      7.98298453e-04 1.28986508e-01 4.40520734e-01 4.40520734e-01
      6.82606874e-03 0. 0. 0. 0. 0. 0. 0. 6.82606874e-03 0. 0. 0. 0. 0.
      0. 0. 0. 0. 4.55091327e-01 0. 0. 0. 1.94524117e-02 1.28837246e-02
      4.55091327e-01 4.55091327e-01 4.55091327e-01 2.69722454e-02 0. 0.
      0. 2.50102431e-02 1.00206742e-02 3.24772805e-01 2.41531998e-01
      3.34020220e-02 8.18704516e-02 1.60144970e-01 2.51075119e-01
      5.63416407e-02 6.55064061e-02 0. 0. 0. 1.49583863e-02
      2.87073106e-01 2.87073106e-01 2.87073106e-01 5.21627441e-02
      1.06498525e-01 0. 0. 0. 1.51118532e-01 1.03925169e-01
      2.07901835e-01 2.87073106e-01 1.43068701e-01 2.87073106e-01
      9.97736771e-03 3.38891754e-03 1.01320065e-05 2.90155690e-02
      2.87073106e-01 2.87073106e-01 2.87073106e-01 1.81092173e-01
      2.87073106e-01 1.52648315e-02 4.44957986e-03 4.39053620e-05
      8.34466815e-02 3.23245257e-01 3.23134482e-01 1.23218603e-01
      6.66506914e-03 3.31994481e-02 0. 0. 0. 3.23245257e-01
      3.23245257e-01 3.18921655e-02 7.14386813e-03 0. 0. 0. 0. 0.
      3.23245257e-01 3.23245257e-01 1.69352442e-01 1.77974522e-01
      4.94626164e-02 1.95381999e-01 2.38053314e-03 5.83669520e-04
      1.48993340e-05 2.05428496e-01 3.23245257e-01 1.66482497e-02
      9.18497238e-03 0. 0. 0. 0. 0. 3.23245257e-01 3.00999135e-01 0. 0.
      0. 8.09730380e-04 0. 1.02674030e-02 4.40412723e-02 3.00999135e-01
      3.00999135e-01 0. 0. 0. 3.89997885e-02 4.00288962e-02
      2.19412327e-01 3.00999135e-01 3.00999135e-01 3.00999135e-01
      2.80108128e-04 1.74426602e-03 9.23835498e-04 8.99015926e-03 0.
      1.49910906e-02 2.06455793e-02 3.00999135e-01 1.94841087e-01
      1.21380191e-03 3.58592793e-02 3.35870534e-02 3.00999135e-01
      1.19825296e-01 2.30165035e-01 1.85164824e-01 2.75940835e-01
      1.07951120e-01 0. 0. 0. 1.96670935e-01 8.33629072e-02
      3.67056489e-01 3.67056489e-01 2.30302781e-01 5.33265853e-03 0. 0.
      0. 1.70527443e-01 2.97571644e-02 2.01362520e-01 7.59493262e-02
      6.72856765e-03 4.91360836e-02 6.35018223e-04 4.38523069e-02
      4.85970750e-02 3.67056489e-01 2.17444032e-01 3.67056489e-01
      2.08765924e-01 8.36098567e-02 1.24308630e-03 0. 6.11659791e-03
      1.03028174e-02 3.67056489e-01 5.76370209e-02 1.63844168e-01
      3.36926356e-02 1.56521902e-03 4.83762510e-02 8.60736147e-02
      9.75232273e-02 7.95244500e-02 2.90864080e-01 9.32597071e-02
      1.67220592e-01 5.60156740e-02 2.23213937e-02 1.22662582e-01
      1.64424896e-01 2.01587170e-01 1.10820986e-01 2.90864080e-01
      9.07455236e-02 1.68470785e-01 1.45124584e-01 8.87286738e-02
      2.11934224e-02 2.06972975e-02 6.06883364e-03 1.59564577e-02
      2.90864080e-01 1.48063570e-01 2.90864080e-01 2.40034699e-01
      1.03958063e-01 2.52436697e-01 4.53685187e-02 2.37984192e-02
      1.97788626e-02 8.54130685e-02 1.13567345e-01 2.90864080e-01
      2.90864080e-01 2.90864080e-01 1.86977744e-01 6.77724034e-02
      1.05911769e-01 4.30325009e-02 1.59422934e-01 1.76695101e-02
      4.47335839e-02 9.07409340e-02 1.62110507e-01 2.42572099e-01
      2.70544607e-02 1.72719662e-03 0. 0. 0. 0. 1.34679431e-03
      2.09349751e-01 3.95329565e-01 1.45640746e-02 1.17867878e-02
      4.06504655e-03 1.02183660e-02 1.51882339e-02 1.15943953e-01
      3.57287288e-01 3.95329565e-01 3.95329565e-01 1.03315353e-01
      1.13940202e-02 0. 2.31153128e-04 0. 0. 5.83610870e-03
      3.95329565e-01 1.78041637e-01 1.21442407e-01 1.82074849e-02
      3.13419290e-03 8.05403944e-03 0. 2.70004710e-03 2.80240504e-03
      1.03374444e-01 1.54849753e-01 2.30093047e-01 2.73959696e-01
      1.28497362e-01 3.17052484e-01 4.81886044e-02 3.56574506e-02
      2.10104603e-02 5.19118048e-02 3.17052484e-01 3.17052484e-01
      8.11653286e-02 1.72146678e-03 1.75831094e-03 0. 0. 0.
      3.17052484e-01 3.17052484e-01 3.17052484e-01 3.17052484e-01
      9.80686247e-02 9.94112343e-02 2.44718394e-03 0. 0. 1.85215726e-01
      6.60844296e-02 1.73465908e-01 3.47255379e-01 1.88607365e-01
      3.47255379e-01 7.00788572e-02 3.83334607e-02 1.36888335e-02
      1.24726295e-02 1.13883279e-02 5.53522892e-02 9.62503031e-02
      5.18474132e-02 3.47255379e-01 1.42654581e-02 9.30677820e-03
      4.50134357e-05 1.50045598e-04 2.68082738e-01 3.47255379e-01
      3.47255379e-01 1.83075041e-01 3.25838089e-01 3.98284756e-03 0. 0.
      4.77218740e-02 4.15009670e-02 9.55469608e-02 1.48365274e-01
      6.17439151e-02 2.25570083e-01 1.40651537e-03 0. 0. 8.23674665e-04
      4.12001647e-02 0. 0. 4.33665555e-04 4.40820791e-02 1.00721844e-01
      3.72651845e-01 3.72651845e-01 2.21639588e-01 3.72651845e-01 0. 0.
      2.89110376e-05 1.05796596e-02 5.59102669e-02 3.72651845e-01
      3.72651845e-01 3.72651845e-01 1.10774813e-02 0. 0. 0.
      2.98423081e-04 0. 1.99740231e-02 3.38131040e-02 1.87027920e-02
      1.91374823e-01 0. 0. 0. 7.36600370e-04 0. 6.42861277e-02
      1.11555010e-01 2.04195619e-01 4.15775836e-01 0. 0. 0.
      9.16658086e-04 5.84602414e-04 8.52705389e-02 2.39165559e-01
      4.15775836e-01 4.15775836e-01 7.27255344e-02 2.21812874e-02 0.
      2.72936915e-04 0. 0. 2.53507844e-03 4.15775836e-01 2.10434526e-01
      0. 0. 0. 1.23171005e-04 0. 1.28968908e-02 2.60924101e-02
      2.12878034e-01 2.68377095e-01 9.47752222e-03 5.11875888e-03 0.
      1.81957967e-05 0. 0. 0. 2.67430961e-01 3.56634229e-01
      3.56634229e-01 1.60426125e-01 0. 1.98189402e-03 0. 0. 0.
      3.56634229e-01 3.56634229e-01 3.56634229e-01 3.56634229e-01
      1.69482101e-02 2.19201520e-02 0. 0. 0. 3.26107502e-01
      2.05932543e-01 5.76204620e-02 2.97680367e-02 0. 3.87251028e-04 0.
      0. 0. 1.99183434e-01 7.19365031e-02 6.04595393e-02 3.18772681e-02
      0. 6.84540079e-04 0. 0. 0. 6.57194778e-02 4.87499088e-01
      4.87499088e-01 4.87499088e-01 1.91716492e-01 2.23262087e-01 0. 0.
      0. 2.94742972e-01 1.23721503e-01 1.57623053e-01 2.14436859e-01
      7.15719014e-02 1.01588324e-01 0. 0. 0. 4.26504668e-03
      4.45870459e-02 5.45663275e-02 2.08798535e-02 0. 1.08259229e-03 0.
      0. 0. 4.11268547e-02 2.47415097e-04 0. 0. 0. 0. 0. 0. 0.
      2.47415097e-04</_>
    <_>
      0. 0. 0. 0. 0. 0. 0. 0. 0. 1.66003313e-02 0. 0. 0. 0. 0. 0. 0.
      1.66003313e-02 1.61740407e-01 1.80714831e-01 3.09615910e-01
      4.57166880e-02 2.23644655e-02 0. 0. 0. 1.24695469e-02
      4.74248946e-01 4.74248946e-01 4.74248946e-01 3.55574228e-02
      1.87991280e-02 0. 0. 0. 4.01163876e-01 2.22626906e-02
      1.24293948e-02 0. 0. 0. 0. 0. 0. 2.18802933e-02 7.80666173e-02
      2.02089529e-02 0. 0. 0. 0. 0. 0. 7.93691203e-02 4.04736817e-01
      4.04736817e-01 7.48612359e-02 0. 2.28599252e-04 0. 0. 0.
      3.96687418e-01 4.04736817e-01 4.04736817e-01 1.01693766e-03 0. 0.
      0. 0. 0. 4.04736817e-01 8.46229494e-02 3.34089668e-03 0. 0. 0. 0.
      0. 6.63296902e-04 8.47613811e-02 7.56233782e-02 0. 0. 0. 0. 0. 0.
      1.92899164e-02 7.43871704e-02 4.45742756e-01 5.72898798e-02 0. 0.
      0. 0. 0. 1.19477212e-02 4.45742756e-01 4.45742756e-01 0. 0. 0. 0.
      0. 0. 4.13998276e-01 4.45742756e-01 4.44133431e-02 0. 0. 0. 0. 0.
      0. 2.27348506e-02 4.47195731e-02 1.02481106e-02 0. 0. 0. 0. 0. 0.
      9.20769584e-04 1.05770659e-02 3.99137229e-01 0. 0. 0.
      4.84682765e-04 0. 3.48514169e-02 3.99137229e-01 3.99137229e-01
      3.18870604e-01 0. 0. 0. 5.02420263e-03 2.38290639e-03
      3.03032517e-01 3.99137229e-01 3.99137229e-01 4.64158505e-02
      7.53903091e-02 1.78179696e-01 8.71571153e-02 1.13147065e-01
      3.09871007e-02 8.96917749e-03 0. 2.48488132e-03 3.06303322e-01
      3.06303322e-01 3.06303322e-01 1.01042062e-01 1.44625098e-01
      3.57347243e-02 6.97602704e-03 0. 8.57673958e-02 1.34671768e-02
      3.95871364e-02 1.79188192e-01 1.95437804e-01 3.06303322e-01
      1.17146842e-01 3.88664380e-02 0. 5.02308074e-04 1.67486057e-01
      2.81106114e-01 3.06303322e-01 2.89746672e-01 3.06303322e-01
      2.29577526e-01 3.02294493e-02 0. 3.51821482e-02 3.13495278e-01
      3.13495278e-01 1.51126310e-01 1.32430783e-02 2.87753232e-02
      6.26216084e-03 0. 0. 2.54018754e-01 3.13495278e-01 2.81020790e-01
      3.74862156e-03 0. 1.25571940e-04 0. 0. 0. 3.13495278e-01
      2.91119218e-01 2.75448650e-01 1.44226938e-01 6.96812719e-02
      2.71276951e-01 7.22383261e-02 0. 0. 1.01822905e-01 3.13495278e-01
      1.15316734e-01 4.17726720e-03 0. 1.90006080e-03 0. 0. 0.
      2.22038910e-01 3.55317265e-01 3.90113965e-02 0. 0. 0. 0. 0.
      9.34799854e-03 3.55317265e-01 3.55317265e-01 0. 0. 0.
      5.73715843e-05 0. 0. 3.34917396e-01 3.55317265e-01 3.07305723e-01
      1.55996699e-02 0. 0. 0. 0. 0. 4.34370479e-03 2.79629022e-01
      3.01248342e-01 1.25240593e-03 4.07788483e-03 2.31273007e-03
      2.47040438e-03 0. 0. 1.53185740e-01 3.00885588e-01 2.73712456e-01
      0. 0. 1.06621231e-03 8.08439963e-03 1.00363707e-02 6.46555722e-02
      2.73712456e-01 2.73712456e-01 1.53108746e-01 0. 0. 4.62025311e-03
      9.96224806e-02 5.97242638e-02 2.73712456e-01 2.73712456e-01
      2.35570908e-01 1.66944072e-01 4.29737195e-02 7.32121095e-02
      5.34923524e-02 6.18409775e-02 3.02763339e-02 7.17319548e-02
      2.70876378e-01 1.77928105e-01 7.76910856e-02 7.39194602e-02
      2.28477925e-01 2.20837787e-01 2.73712456e-01 1.60368890e-01
      2.73712456e-01 2.73712456e-01 1.00365467e-01 1.64146695e-05
      1.10614090e-03 4.82598245e-02 9.31383967e-02 3.35268766e-01
      1.01041183e-01 1.05143957e-01 1.02820713e-02 2.21027038e-03
      1.40135214e-02 2.58994196e-02 6.45935461e-02 1.70018271e-01
      3.35268766e-01 1.82006657e-01 2.29094610e-01 7.80269578e-02
      8.02321061e-02 2.90971133e-03 0. 1.41058932e-03 1.03890616e-02
      2.67123312e-01 1.09491199e-01 3.01114589e-01 6.30849525e-02
      9.28808749e-03 7.77088031e-02 0. 1.09712500e-03 2.09211223e-02
      3.35268766e-01 1.61298737e-01 3.35268766e-01 3.35268766e-01
      2.43864611e-01 4.36701179e-02 2.91371699e-02 2.64119729e-02
      7.73194209e-02 3.36513013e-01 7.64991865e-02 1.49907783e-01
      1.28846034e-01 1.36257961e-01 6.50050044e-02 6.46779127e-03
      7.29290303e-04 0. 1.83629920e-03 0. 1.54080642e-02 4.80606966e-02
      9.60622057e-02 2.75675714e-01 0. 0. 1.06147062e-02 1.58044085e-01
      4.74366657e-02 3.36513013e-01 3.36513013e-01 3.36513013e-01
      3.36513013e-01 7.45333135e-02 0. 0. 2.15416425e-04 0.
      7.80190825e-02 3.36513013e-01 3.36513013e-01 8.18529651e-02
      1.63680799e-02 1.11394515e-03 0. 0. 0. 0. 2.91312253e-03
      7.87611082e-02 1.46385103e-01 9.51405242e-02 1.48338780e-01
      8.29892419e-03 8.96032527e-03 0. 0. 2.20588082e-03 7.10321516e-02
      3.72959554e-01 2.97755331e-01 4.82709566e-03 0. 0. 0.
      2.42459960e-03 4.56785746e-02 3.72959554e-01 3.72959554e-01
      3.72959554e-01 3.72959554e-01 3.77223874e-03 5.24798920e-03 0. 0.
      0. 3.72959554e-01 7.63391107e-02 1.71064138e-01 3.09787750e-01
      8.30786228e-02 7.05985427e-02 8.88435263e-03 1.06945932e-02
      1.58184413e-02 1.91212632e-02 4.75255214e-02 2.37079069e-01
      3.09787750e-01 2.74365127e-01 2.89062411e-01 4.43212427e-02
      2.64729913e-02 2.49818377e-02 8.93695094e-03 3.09787750e-01
      3.09787750e-01 3.09787750e-01 4.73850630e-02 4.50904071e-02 0. 0.
      0. 1.14716217e-01 1.51487902e-01 2.95127094e-01 3.09787750e-01
      1.20433062e-01 1.02947555e-01 2.94563561e-05 0. 0. 7.14136939e-03
      1.74286272e-02 0. 0. 0. 5.82288429e-02 1.25459939e-01
      4.12280291e-01 1.34753466e-01 2.87134368e-02 3.78144920e-01 0. 0.
      0. 8.81148726e-02 2.43580326e-01 4.12280291e-01 4.12280291e-01
      4.12280291e-01 3.97417601e-03 0. 0. 0. 8.94233584e-04
      3.30373808e-03 4.46903799e-03 6.53672637e-03 5.11211855e-03
      1.01553589e-01 0. 0. 0. 2.90823914e-03 7.26822345e-03
      8.94511566e-02 1.51881486e-01 1.60979763e-01 3.30545485e-01 0. 0.
      0. 7.51182437e-03 2.01534647e-02 3.09183449e-01 3.30545485e-01
      3.30545485e-01 3.30545485e-01 8.32794905e-02 0. 0. 1.45196638e-04
      0. 9.46704596e-02 2.99127638e-01 3.30545485e-01 1.06894284e-01 0.
      0. 0. 3.96023330e-04 5.61714347e-04 5.64842932e-02 9.14744288e-02
      1.67058215e-01 2.89820820e-01 2.26214845e-02 0. 0. 9.67977576e-06
      0. 3.54148857e-02 5.52061722e-02 3.30545485e-01 3.47478002e-01
      2.94704646e-01 1.56139140e-03 0. 0. 0. 5.79501782e-03
      3.15170325e-02 3.47478002e-01 3.47478002e-01 3.47478002e-01
      1.74295738e-01 0. 9.07334965e-04 0. 0. 0. 3.47478002e-01
      2.79693007e-01 8.06173310e-02 0. 0. 0. 0. 2.63409922e-03
      4.28518839e-03 2.82414168e-01 2.49002084e-01 1.32833779e-01
      1.56226140e-02 0. 1.50203894e-04 0. 0. 0. 1.73672751e-01
      3.74915302e-01 3.74915302e-01 3.74915302e-01 1.87525004e-02
      2.12942027e-02 0. 0. 0. 3.74915302e-01 2.52700806e-01
      3.61036092e-01 3.74915302e-01 6.04283772e-02 6.06768094e-02 0. 0.
      0. 3.04147676e-02 2.17351660e-01 1.66461259e-01 6.45083189e-02 0.
      7.54088105e-04 0. 0. 0. 9.64222252e-02 1.68588664e-02
      2.94417683e-02 2.36398131e-02 0. 3.86727916e-04 0. 0. 0.
      7.65153812e-03</_>
    <_>
      0. 0. 0. 0. 0. 0. 0. 0. 0. 0. 0. 0. 0. 0. 0. 0. 0. 0.
      3.19132656e-01 3.83306861e-01 1.96769953e-01 4.61692065e-02 0. 0.
      0. 0. 7.88593888e-02 4.67552871e-01 4.67552871e-01 2.07927585e-01
      2.09860019e-02 0. 0. 0. 0. 4.67552871e-01 0. 0. 0. 0. 0. 0. 0. 0.
      0. 1.29922337e-05 0. 0. 0. 0. 0. 0. 0. 1.29922337e-05
      4.63766009e-01 3.57655078e-01 1.06498003e-02 0. 0. 0. 0. 0.
      4.63766009e-01 4.63766009e-01 3.40305977e-02 0. 0. 0. 0. 0.
      7.65740499e-02 4.63766009e-01 6.88135551e-05 0. 0. 0. 0. 0. 0. 0.
      6.88135551e-05 5.35216532e-05 0. 0. 0. 0. 0. 0. 0. 5.35216532e-05
      4.03187275e-01 0. 0. 0. 0. 0. 3.91153153e-03 4.03187275e-01
      4.03187275e-01 4.03187275e-01 0. 0. 0. 0. 0. 1.43516794e-01
      4.03187275e-01 4.03187275e-01 0. 0. 0. 0. 0. 0. 0. 0. 0. 0. 0. 0.
      0. 0. 0. 0. 0. 0. 4.84440386e-01 0. 0. 0. 0. 0. 4.84440386e-01
      4.84440386e-01 4.84440386e-01 5.32472553e-03 0. 0. 0. 0. 0.
      8.95360708e-02 2.17869669e-01 3.03179007e-02 1.22432575e-01
      1.65202931e-01 2.06462115e-01 9.32653695e-02 7.03120008e-02 0. 0.
      0. 2.46046484e-02 2.81609446e-01 2.81609446e-01 1.95756748e-01
      4.87619452e-02 2.71373428e-02 0. 0. 0. 2.24067226e-01
      7.35378861e-02 1.41487941e-01 2.81609446e-01 2.81503409e-01
      2.81609446e-01 3.65135074e-02 1.27119571e-02 2.64080800e-03
      1.40563492e-02 2.81609446e-01 2.81609446e-01 2.81609446e-01
      2.19469830e-01 2.64858097e-01 3.66405509e-02 1.58793852e-02
      5.80977835e-03 1.57944113e-01 3.21962804e-01 3.09607595e-01
      3.26532498e-02 1.23144395e-03 1.05149718e-03 0. 0. 0.
      3.21962804e-01 3.21962804e-01 4.53161113e-02 0. 0. 0. 0. 0.
      5.99921010e-02 3.21962804e-01 3.21962804e-01 2.63129354e-01
      8.01793337e-02 2.39123348e-02 2.21122932e-02 4.38625505e-03
      2.77818623e-03 1.22184423e-03 2.97556132e-01 3.21962804e-01
      4.16453108e-02 0. 0. 0. 0. 0. 3.94385196e-02 3.21962804e-01
      2.81939745e-01 0. 0. 0. 8.50645010e-05 0. 1.15536023e-02
      2.54718781e-01 2.81939745e-01 2.81939745e-01 6.37081976e-05
      1.90638675e-04 0. 3.70486802e-03 1.28008947e-02 1.92388475e-01
      2.81939745e-01 2.81939745e-01 2.81939745e-01 0. 0. 0.
      3.25241330e-04 0. 2.26381347e-02 1.84771314e-01 2.81939745e-01
      2.07746953e-01 1.73710170e-04 5.19805879e-04 3.81385861e-03
      1.29876286e-01 8.27114582e-02 2.81939745e-01 2.81939745e-01
      2.79339552e-01 9.20671076e-02 1.93393469e-04 5.78705629e-04 0.
      3.04118153e-02 8.20485651e-02 3.18002194e-01 3.18002194e-01
      1.74818575e-01 1.19042373e-03 5.98121769e-05 1.78980525e-04 0.
      3.04210018e-02 6.14880770e-02 1.33738995e-01 8.50401446e-02
      1.08755697e-02 6.68350458e-02 5.70209522e-04 1.70628109e-03
      1.06752142e-02 3.18002194e-01 3.18002194e-01 3.18002194e-01
      3.18002194e-01 1.36008620e-01 1.72314106e-03 1.97379472e-04
      5.90633950e-04 4.25493252e-03 3.18002194e-01 2.68939465e-01
      3.18002194e-01 1.25053480e-01 1.04663344e-02 6.38163835e-03
      2.01643817e-02 1.53534919e-01 1.32389024e-01 2.96663493e-01
      1.53121099e-01 2.26197720e-01 7.74731860e-02 7.02141877e-03
      6.78884238e-02 7.81767741e-02 1.36342034e-01 1.21151991e-01
      2.96663493e-01 1.21243656e-01 2.34272465e-01 2.01255426e-01
      9.71993357e-02 2.43871082e-02 0. 1.01967913e-03 5.38008148e-03
      2.34671548e-01 1.37947321e-01 2.96663493e-01 2.41705805e-01
      8.00078958e-02 1.64559841e-01 0. 1.31101615e-03 3.56503110e-03
      9.61004123e-02 8.58500078e-02 2.96663493e-01 2.96663493e-01
      2.96663493e-01 1.57580420e-01 5.61884195e-02 3.56309265e-02
      2.26329453e-02 4.05891985e-02 1.77430511e-02 6.63128570e-02
      1.37710065e-01 2.16890365e-01 2.46916547e-01 6.97278278e-03 0. 0.
      0. 0. 0. 1.76664293e-02 2.61925459e-01 3.82034481e-01 0.
      2.35059590e-04 5.75288956e-04 1.08481385e-02 9.96282138e-03
      1.76118046e-01 3.82034481e-01 3.82034481e-01 3.82034481e-01 0. 0.
      0. 1.39129217e-04 0. 3.37019237e-03 5.58221750e-02 3.82034481e-01
      2.04913571e-01 6.93642581e-03 0. 0. 2.10444414e-04 0.
      6.97464962e-03 3.40991579e-02 2.06689730e-01 1.77771300e-01
      6.34142682e-02 7.22295567e-02 6.41452000e-02 3.29952478e-01
      7.53149092e-02 1.65358871e-01 1.21717505e-01 1.56548157e-01
      3.43276024e-01 4.66004871e-02 0. 0. 4.55201371e-05 0. 0. 0.
      3.43276024e-01 3.43276024e-01 3.43276024e-01 2.54544050e-01
      8.07394013e-02 1.47301897e-01 7.95885175e-03 1.06772117e-03 0.
      3.43276024e-01 5.07236421e-02 4.34146598e-02 1.43502608e-01
      1.06294625e-01 3.22630674e-01 1.77066848e-01 2.33429998e-01
      7.91206136e-02 3.69109698e-02 9.27996647e-04 9.02018975e-03
      8.60469565e-02 4.79268767e-02 3.22630674e-01 1.08438179e-01
      1.18188560e-01 2.44904570e-02 1.61702931e-03 2.16974556e-01
      3.22630674e-01 3.22630674e-01 1.39925718e-01 3.22630674e-01
      1.39065105e-02 2.69142794e-03 0. 1.42094985e-01 6.37851330e-03
      1.02600202e-01 3.22630674e-01 6.73917606e-02 3.22630674e-01
      5.59204258e-03 1.78866659e-03 0. 4.78768628e-03 6.12267070e-02 0.
      0. 0. 4.75012697e-02 3.95962782e-02 3.89956146e-01 3.67074490e-01
      2.03956574e-01 3.89956146e-01 0. 0. 0. 2.13404838e-02
      1.51079753e-02 3.89956146e-01 3.89956146e-01 3.89956146e-01
      8.16802494e-03 0. 0. 0. 5.27230695e-05 0. 4.99473652e-03
      1.15350327e-02 1.52066788e-02 1.15141019e-01 0. 0. 0.
      8.47989460e-04 0. 5.98383136e-02 1.09148122e-01 1.48218334e-01
      3.99147809e-01 0. 0. 0. 1.28826231e-03 0. 1.57985404e-01
      3.62972409e-01 3.99147809e-01 3.99147809e-01 0. 0. 0.
      1.70198953e-04 0. 6.79736305e-03 4.19997796e-02 3.99147809e-01
      1.59157947e-01 0. 0. 0. 2.99501990e-04 0. 2.58249380e-02
      4.72039916e-02 1.69504270e-01 2.67311215e-01 0. 0. 0.
      1.13465976e-05 0. 1.56862219e-03 5.43260807e-03 2.67901182e-01
      3.93115729e-01 5.19937091e-02 0. 0. 7.82854931e-06 0. 0. 0.
      3.93115729e-01 3.93115729e-01 3.93115729e-01 1.65655598e-01
      1.63771007e-02 4.16846806e-03 0. 0. 0. 3.93115729e-01
      2.39456892e-01 8.53730552e-03 0. 0. 0. 0. 0. 0. 2.39075407e-01
      1.96829796e-01 8.82342160e-02 5.41422749e-03 0. 0. 0. 0. 0.
      1.78370699e-01 4.03122187e-01 4.03122187e-01 4.03122187e-01
      8.15646797e-02 8.91884193e-02 0. 0. 0. 4.03122187e-01
      2.78850179e-02 2.80321926e-01 4.03122187e-01 4.31319401e-02
      1.39492169e-01 0. 0. 0. 1.81443579e-02 1.50167495e-01
      1.76843494e-01 2.93551367e-02 0. 0. 0. 0. 0. 1.11540169e-01
      6.37859153e-03 2.23548505e-02 1.18047139e-02 0. 0. 0. 0. 0.
      3.97674832e-03</_>
    <_>
      0. 0. 0. 0. 0. 0. 0. 0. 0. 0. 0. 0. 0. 0. 0. 0. 0. 0. 0. 0. 0. 0.
      0. 0. 0. 0. 0. 0. 0. 0. 0. 0. 0. 0. 0. 0. 0. 0. 0. 0. 0. 0. 0. 0.
      0. 0. 0. 0. 0. 0. 0. 0. 0. 0. 0. 0. 0. 0. 0. 0. 0. 0. 0. 0. 0. 0.
      0. 0. 0. 0. 0. 0. 0. 0. 0. 0. 0. 0. 0. 0. 0. 0. 0. 0. 0. 0. 0. 0.
      0. 0. 0. 0. 0. 0. 0. 0. 0. 0. 0. 0. 0. 0. 0. 0. 0. 0. 0. 0. 0. 0.
      0. 0. 0. 0. 0. 0. 0. 0. 0. 0. 0. 0. 0. 0. 0. 0. 0. 0. 0. 0. 0. 0.
      0. 0. 0. 0. 0. 0. 0. 0. 0. 0. 0. 0. 1.01498201e-01 3.68013866e-02
      3.45488973e-02 6.03323150e-03 1.74297094e-02 0. 0. 0.
      8.13634172e-02 3.02483916e-01 2.56188717e-02 1.95641164e-02
      2.69946340e-03 4.65817656e-03 0. 0. 0. 2.76596338e-01
      3.80877137e-01 1.73629150e-01 1.55999780e-01 9.04984698e-02
      2.32474223e-01 0. 1.40261084e-01 1.73798680e-01 3.51485193e-01
      4.00365680e-01 1.22025706e-01 8.96684229e-02 4.04919535e-02
      6.30641505e-02 0. 6.74293563e-02 1.35037035e-01 4.00365680e-01
      2.18963370e-01 2.16926142e-04 0. 0. 0. 0. 0. 0. 2.16337547e-01
      2.49503195e-01 0. 0. 0. 0. 0. 0. 0. 2.49503195e-01 4.40551728e-01
      9.40013211e-04 0. 0. 0. 0. 0. 2.15592328e-03 4.40551728e-01
      4.40551728e-01 0. 0. 0. 0. 0. 0. 0. 4.40551728e-01 2.20783815e-01
      0. 0. 0. 0. 0. 0. 1.92141836e-03 2.20728740e-01 2.11596861e-01 0.
      0. 0. 0. 0. 0. 4.99590486e-02 2.14335337e-01 4.18466151e-01 0. 0.
      0. 0. 0. 0. 1.19778747e-02 4.18466151e-01 4.18466151e-01
      7.93107261e-04 0. 0. 0. 0. 0. 3.23327959e-01 4.18466151e-01
      1.76554382e-01 0. 0. 0. 1.32698251e-03 0. 7.13181123e-03
      1.02687925e-01 2.02731013e-01 4.56762649e-02 0. 0. 0.
      5.81453461e-03 0. 1.48803806e-02 6.09684214e-02 7.44464919e-02
      3.52095693e-01 8.23375434e-02 6.03181347e-02 4.18532640e-02
      7.21549317e-02 0. 1.06977165e-01 3.52095693e-01 3.52095693e-01
      3.10789108e-01 1.17390357e-01 1.04692429e-01 9.36336964e-02
      2.70954937e-01 0. 2.23205745e-01 3.52095693e-01 3.52095693e-01
      3.08470309e-01 9.38417241e-02 8.13621357e-02 7.50592202e-02
      2.09726915e-01 0. 1.91799432e-01 3.21533859e-01 3.95023137e-01
      4.03496653e-01 6.64386377e-02 4.73525487e-02 3.35839316e-02
      5.61422855e-02 0. 9.22059938e-02 2.50957668e-01 4.03496653e-01
      5.12841269e-02 0. 0. 0. 4.66623204e-03 0. 1.27866287e-02
      5.64163849e-02 8.13867599e-02 2.26241961e-01 0. 0. 0.
      1.06562977e-03 0. 6.14706613e-03 4.43827361e-02 2.56324857e-01
      4.54175442e-01 4.78155416e-04 0. 0. 0. 0. 0. 4.91484907e-03
      4.54175442e-01 4.54175442e-01 0. 0. 0. 0. 0. 0. 0. 4.54175442e-01
      1.90448567e-01 0. 0. 0. 0. 0. 0. 1.13419583e-03 1.92751855e-01
      2.20127866e-01 0. 0. 0. 0. 0. 0. 0. 2.20127866e-01 4.23751563e-01
      0. 0. 0. 0. 0. 0. 1.20278476e-02 4.23751563e-01 4.23751563e-01
      1.73142762e-03 0. 0. 0. 0. 0. 3.38693976e-01 4.23751563e-01
      1.87024266e-01 0. 0. 0. 0. 0. 0. 1.83970714e-03 1.85651422e-01
      2.16312513e-01 3.99560202e-04 0. 0. 0. 0. 0. 5.38243949e-02
      2.08585635e-01 3.40992957e-01 1.41706854e-01 1.06970325e-01
      4.70673367e-02 7.62268528e-02 0. 7.29682893e-02 3.40992957e-01
      3.40992957e-01 3.40992957e-01 2.03568459e-01 1.87855065e-01
      1.05298564e-01 2.82976300e-01 0. 1.52246892e-01 1.86377749e-01
      3.40992957e-01 2.53145576e-01 2.99299322e-02 2.34543756e-02
      3.13782250e-03 5.79925114e-03 0. 0. 5.59744611e-02 2.24519610e-01
      1.13507591e-01 4.34137918e-02 4.17683460e-02 7.01990491e-03
      2.19302420e-02 0. 0. 2.27797125e-03 9.14680138e-02 0. 0. 0. 0. 0.
      0. 0. 0. 0. 0. 0. 0. 0. 0. 0. 0. 0. 0. 0. 0. 0. 0. 0. 0. 0. 0. 0.
      0. 0. 0. 0. 0. 0. 0. 0. 0. 0. 0. 0. 0. 0. 0. 0. 0. 0. 0. 0. 0. 0.
      0. 0. 0. 0. 0. 0. 0. 0. 0. 0. 0. 0. 0. 0. 0. 0. 0. 0. 0. 0. 0. 0.
      0. 0. 0. 0. 0. 0. 0. 0. 0. 0. 0. 0. 0. 0. 0. 0. 0. 0. 0. 0. 0. 0.
      0. 0. 0. 0. 0. 0. 0. 0. 0. 0. 0. 0. 0. 0. 0. 0. 0. 0. 0. 0. 0. 0.
      0. 0. 0. 0. 0. 0. 0. 0. 0. 0. 0. 0. 0. 0. 0. 0. 0. 0. 0. 0. 0. 0.
      0. 0. 0. 0. 0. 0. 0.</_>
    <_>
      0. 0. 0. 0. 0. 0. 0. 0. 0. 0. 0. 0. 0. 0. 0. 0. 0. 0. 0. 0. 0. 0.
      0. 0. 0. 0. 0. 0. 0. 0. 0. 0. 0. 0. 0. 0. 0. 0. 0. 0. 0. 0. 0. 0.
      0. 0. 0. 0. 0. 0. 0. 0. 0. 0. 1.36415422e-01 0. 0. 0. 0. 0. 0. 0.
      1.19675934e-01 6.92875147e-01 0. 0. 0. 0. 0. 0. 0. 6.92875147e-01
      0. 0. 0. 0. 0. 0. 0. 0. 0. 0. 0. 0. 0. 0. 0. 0. 0. 0.
      4.65707153e-01 1.84208527e-03 0. 0. 0. 0. 0. 0. 4.65707153e-01
      4.65707153e-01 3.57508302e-01 0. 0. 0. 0. 0. 0. 4.65707153e-01 0.
      0. 0. 0. 0. 0. 0. 0. 0. 0. 0. 0. 0. 0. 0. 0. 0. 0. 4.26743507e-01
      2.80573457e-01 0. 0. 0. 0. 0. 7.44116381e-02 4.26743507e-01
      4.26743507e-01 3.04510128e-02 0. 0. 1.05697010e-03 0. 0.
      4.26743507e-01 4.26743507e-01 1.05270386e-01 7.30204582e-02
      6.63992167e-02 1.01321964e-02 9.16358177e-03 0. 0. 0.
      5.09202629e-02 3.36141318e-01 9.31410939e-02 6.50905594e-02
      2.72612483e-03 1.83501130e-03 0. 0. 0. 2.77869761e-01
      3.36141318e-01 3.23321432e-01 2.72716224e-01 6.23973235e-02
      1.59359008e-01 6.21760935e-02 8.80844519e-02 1.45157143e-01
      1.65854827e-01 3.36141318e-01 3.36141318e-01 1.98179796e-01
      2.02182736e-02 3.25134099e-02 1.43483281e-02 4.00383808e-02
      8.36483911e-02 3.36141318e-01 2.68553138e-01 4.77738380e-02
      6.50213659e-03 0. 0. 0. 0. 0. 2.48437509e-01 3.17647159e-01
      1.93017483e-01 0. 0. 0. 0. 0. 0. 2.68249691e-01 3.54052931e-01
      1.52350381e-01 1.43046994e-02 0. 0. 0. 0. 0. 3.54052931e-01
      3.54052931e-01 3.54052931e-01 0. 0. 0. 0. 0. 0. 3.54052931e-01
      3.24429840e-01 9.78058279e-02 0. 0. 0. 0. 0. 0. 2.95635611e-01
      3.44159931e-01 7.14994669e-02 0. 0. 0. 0. 0. 0. 3.44159931e-01
      3.44159931e-01 2.35688403e-01 0. 0. 0. 0. 0. 0. 3.44159931e-01
      3.44159931e-01 1.51666462e-01 0. 0. 0. 0. 0. 0. 3.44159931e-01
      3.27946752e-01 9.07232612e-02 3.30994301e-03 6.59245474e-04 0. 0.
      4.01440402e-03 2.23592855e-02 3.27946752e-01 3.07965726e-01
      3.75134386e-02 5.34692332e-02 1.58203207e-02 5.21600321e-02
      3.37864161e-02 6.02160543e-02 1.66968167e-01 2.91480988e-01
      3.27946752e-01 1.80692077e-01 1.06222192e-02 1.45034003e-03 0. 0.
      5.16137574e-03 1.81127582e-02 3.27946752e-01 3.27946752e-01
      1.36454716e-01 1.75886959e-01 4.74588610e-02 1.01877786e-01
      4.34396788e-02 7.74206445e-02 1.40697181e-01 3.27946752e-01
      3.42232108e-01 3.49688262e-01 1.85974941e-01 5.05880453e-02
      1.85693070e-01 1.07864402e-01 1.52810782e-01 3.49688262e-01
      2.09279194e-01 3.49688262e-01 3.49688262e-01 1.11946039e-01
      1.77969318e-02 3.82471271e-02 2.48917844e-02 6.94594383e-02
      2.23294720e-01 3.49688262e-01 4.83994149e-02 5.19001670e-02 0. 0.
      3.28451232e-03 7.19096046e-03 1.01873856e-02 7.88273886e-02
      4.44460250e-02 1.17648765e-01 9.62017179e-02 0. 0. 7.13858695e-04
      1.65945245e-03 4.63062990e-03 4.74923961e-02 9.58037674e-02
      4.27078068e-01 2.44492069e-01 7.53052346e-03 0. 0. 0. 0. 0.
      4.27078068e-01 4.27078068e-01 4.25751358e-01 0. 0. 0. 0. 0. 0.
      4.27078068e-01 9.59813073e-02 2.47112960e-02 0. 0. 0. 0. 0. 0.
      8.30749124e-02 7.28207529e-02 1.49435997e-02 0. 0. 0. 0. 0. 0.
      5.29455841e-02 4.51522440e-01 3.57986659e-01 0. 0. 0. 0. 0. 0.
      4.51522440e-01 4.51522440e-01 2.20471099e-01 0. 0. 0. 0. 0. 0.
      4.51522440e-01 3.96383516e-02 7.21387751e-03 0. 0. 0. 0. 0. 0.
      2.74579506e-02 2.07450464e-02 0. 0. 0. 0. 0. 0. 0. 2.07450464e-02
      4.41044390e-01 2.98393101e-01 1.49765704e-02 1.44577678e-03 0. 0.
      3.12068290e-03 1.10529666e-03 4.41044390e-01 4.41044390e-01
      2.19853625e-01 2.51855075e-01 6.39316514e-02 9.51918066e-02
      2.62645986e-02 4.68102433e-02 1.65794510e-02 4.41044390e-01
      9.13580228e-03 0. 0. 0. 0. 0. 0. 0. 9.13580228e-03 2.10265091e-04
      0. 0. 0. 0. 0. 0. 0. 2.10265091e-04 0. 0. 0. 0. 0. 0. 0. 0. 0. 0.
      0. 0. 0. 0. 0. 0. 0. 0. 0. 0. 0. 0. 0. 0. 0. 0. 0. 0. 0. 0. 0. 0.
      0. 0. 0. 0. 0. 0. 0. 0. 0. 0. 0. 0. 0. 0. 0. 0. 0. 0. 0. 0. 0. 0.
      0. 0. 0. 0. 0. 0. 0. 0. 0. 0. 0. 0. 0. 0. 0. 0. 0. 0. 0. 0. 0. 0.
      0. 0. 0. 0. 0. 0. 0. 0. 0. 0. 0. 0. 0. 0. 0. 0. 0. 0. 0. 0. 0. 0.
      0. 0. 0. 0. 0. 0. 0. 0. 0. 0. 0. 0. 0. 0. 0. 0. 0. 0. 0. 0. 0. 0.
      0. 0. 0. 0. 0. 0. 0. 0. 0. 0. 0. 0. 0. 0. 0. 0. 0. 0. 0. 0. 0. 0.
      0. 0.</_>
    <_>
      0. 0. 0. 0. 0. 0. 0. 0. 0. 0. 0. 0. 0. 0. 0. 0. 0. 0. 0. 0. 0. 0.
      0. 0. 0. 0. 0. 6.45905077e-01 0. 0. 0. 0. 0. 0. 0. 6.45905077e-01
      0. 0. 0. 0. 0. 0. 0. 0. 0. 0. 0. 0. 0. 0. 0. 0. 0. 0.
      8.69408026e-02 0. 0. 0. 0. 0. 0. 0. 8.69408026e-02 6.99250460e-01
      0. 0. 0. 0. 0. 0. 0. 6.99250460e-01 0. 0. 0. 0. 0. 0. 0. 0. 0. 0.
      0. 0. 0. 0. 0. 0. 0. 0. 4.28245276e-01 2.80628324e-01 0. 0. 0. 0.
      0. 0. 4.28245276e-01 4.28245276e-01 4.28245276e-01 0. 0. 0. 0. 0.
      0. 4.28245276e-01 0. 0. 0. 0. 0. 0. 0. 0. 0. 0. 0. 0. 0. 0. 0. 0.
      0. 0. 4.40965086e-01 3.57255012e-01 0. 0. 0. 0. 4.94735362e-03
      1.27129611e-02 4.40965086e-01 4.40965086e-01 1.06330715e-01 0. 0.
      2.29540244e-02 0. 1.80911899e-01 2.13107497e-01 4.40965086e-01
      7.39441290e-02 6.24175854e-02 1.18739428e-02 0. 4.33316547e-03 0.
      0. 0. 3.31463702e-02 2.91772813e-01 1.42239422e-01 1.70220807e-02
      0. 9.89567023e-04 0. 0. 0. 1.39498711e-01 3.75755250e-01
      3.63494754e-01 1.78109139e-01 0. 2.04170093e-01 7.41970763e-02
      8.51470903e-02 9.76937935e-02 2.10638836e-01 3.75755250e-01
      3.75755250e-01 1.10514820e-01 0. 5.47810309e-02 3.31981666e-02
      4.94638532e-02 6.90923557e-02 3.75755250e-01 2.14564413e-01
      1.11271255e-01 2.81609930e-02 0. 0. 0. 0. 0. 1.29142329e-01
      3.42623174e-01 1.41080022e-01 7.10998699e-02 0. 0. 0. 0. 0.
      2.47571304e-01 3.42623174e-01 3.42623174e-01 5.34193777e-02 0. 0.
      0. 0. 4.06412844e-04 3.42623174e-01 3.42623174e-01 3.42623174e-01
      9.92379263e-02 0. 0. 0. 0. 0. 3.42623174e-01 3.22491080e-01
      1.12163514e-01 2.57591046e-02 0. 0. 0. 0. 0. 2.65971094e-01
      3.22491080e-01 1.69738963e-01 0. 0. 0. 0. 0. 0. 3.22491080e-01
      3.22491080e-01 2.97975510e-01 3.31188478e-02 0. 0. 0. 0. 0.
      3.22491080e-01 3.22491080e-01 2.57083178e-01 0. 0. 0. 0. 0. 0.
      3.22491080e-01 3.09261411e-01 1.67322099e-01 3.09612282e-04 0. 0.
      0. 2.19216663e-03 5.54413395e-03 3.09261411e-01 3.09261411e-01
      1.16357245e-01 4.26667258e-02 0. 5.66987544e-02 3.06372866e-02
      7.41332099e-02 9.18268710e-02 3.09261411e-01 3.09261411e-01
      2.45883092e-01 6.81146979e-04 0. 0. 0. 1.84700009e-03
      4.63175774e-03 3.09261411e-01 3.09261411e-01 2.89989203e-01
      9.38667953e-02 0. 7.72790462e-02 3.93908024e-02 5.97888865e-02
      7.62157068e-02 3.09261411e-01 3.64426315e-01 2.27557212e-01
      1.32721022e-01 0. 2.33155981e-01 9.11564901e-02 1.66693777e-01
      1.84877634e-01 3.16234052e-01 3.64426315e-01 3.64426315e-01
      7.06277639e-02 0. 6.32974133e-02 4.07863557e-02 9.56987441e-02
      1.29834071e-01 3.64426315e-01 9.43881944e-02 1.00295078e-02 0. 0.
      1.80446021e-02 6.07709866e-03 3.70061956e-02 3.93734351e-02
      9.75751951e-02 2.64450669e-01 8.07199627e-02 0. 0. 4.80469735e-03
      2.71909055e-03 2.09475234e-02 2.74023283e-02 1.86916366e-01
      3.95571828e-01 3.95571828e-01 2.14644317e-02 0. 0. 0. 0.
      1.32365304e-03 3.95571828e-01 3.95571828e-01 3.95571828e-01
      2.97957081e-02 0. 0. 0. 0. 0. 3.95571828e-01 1.80511132e-01
      7.48783946e-02 0. 0. 0. 0. 0. 3.05458379e-04 8.99918824e-02
      7.55537674e-02 3.67862582e-02 0. 0. 0. 0. 0. 0. 4.98421825e-02
      4.26689923e-01 4.26689923e-01 1.71379279e-02 0. 0. 0. 0. 0.
      4.26689923e-01 4.26689923e-01 2.87319273e-01 0. 0. 0. 0. 0. 0.
      4.26689923e-01 3.32057700e-02 1.67755559e-02 0. 0. 0. 0. 0. 0.
      3.15000340e-02 9.84669663e-03 0. 0. 0. 0. 0. 0. 0. 9.84669663e-03
      4.21154797e-01 3.02147627e-01 8.23832874e-04 0. 0. 0.
      2.63643946e-04 5.93562203e-04 4.21154797e-01 4.21154797e-01
      4.21154797e-01 1.13529891e-01 0. 6.18055239e-02 2.88965367e-02
      3.95465922e-03 8.90343357e-03 4.21154797e-01 1.22753263e-03 0. 0.
      0. 0. 0. 0. 0. 1.22753263e-03 0. 0. 0. 0. 0. 0. 0. 0. 0. 0. 0. 0.
      0. 0. 0. 0. 0. 0. 0. 0. 0. 0. 0. 0. 0. 0. 0. 0. 0. 0. 0. 0. 0. 0.
      0. 0. 0. 0. 0. 0. 0. 0. 0. 0. 0. 0. 0. 0. 0. 0. 0. 0. 0. 0. 0. 0.
      0. 0. 0. 0. 0. 0. 0. 0. 0. 0. 0. 0. 0. 0. 0. 0. 0. 0. 0. 0. 0. 0.
      0. 0. 0. 0. 0. 0. 0. 0. 0. 0. 0. 0. 0. 0. 0. 0. 0. 0. 0. 0. 0. 0.
      0. 0. 0. 0. 0. 0. 0. 0. 0. 0. 0. 0. 0. 0. 0. 0. 0. 0. 0. 0. 0. 0.
      0. 0. 0. 0. 0. 0. 0. 0. 0. 0. 0. 0. 0. 0. 0. 0. 0. 0. 0. 0. 0. 0.
      0. 0. 0. 0. 0. 0. 0. 0. 0.</_>
    <_>
      0. 0. 0. 0. 0. 0. 0. 0. 0. 0. 0. 0. 0. 0. 0. 0. 0. 0. 0. 0. 0. 0.
      0. 0. 0. 0. 0. 0. 0. 0. 0. 0. 0. 0. 0. 0. 0. 0. 0. 0. 0. 0. 0. 0.
      0. 0. 0. 0. 0. 0. 0. 0. 0. 0. 0. 0. 0. 0. 0. 0. 0. 0. 0. 0. 0. 0.
      0. 0. 0. 0. 0. 0. 0. 0. 0. 0. 0. 0. 0. 0. 0. 0. 0. 0. 0. 0. 0. 0.
      0. 0. 0. 0. 0. 0. 0. 0. 0. 0. 0. 0. 0. 0. 0. 0. 0. 0. 0. 0. 0. 0.
      0. 0. 0. 0. 0. 0. 0. 0. 0. 0. 0. 0. 0. 0. 0. 0. 0. 0. 0. 0. 0. 0.
      0. 0. 0. 0. 0. 0. 0. 0. 0. 0. 0. 0. 1.51754534e-02 1.65177956e-02
      1.10564128e-04 0. 0. 0. 0. 0. 1.44751817e-02 9.62777212e-02
      3.43288444e-02 5.02564217e-05 0. 0. 0. 0. 0. 9.86295715e-02
      2.00955510e-01 3.94509852e-01 3.64433408e-01 7.61705041e-02
      1.34596899e-01 2.55137701e-02 6.57533109e-02 1.88821778e-02
      1.61636844e-01 3.94923180e-01 3.94923180e-01 3.40209633e-01
      3.46229561e-02 5.72122633e-02 1.61065925e-02 4.87344787e-02
      1.46861402e-02 3.94923180e-01 9.04836208e-02 3.34178098e-02 0. 0.
      0. 0. 0. 0. 6.63111657e-02 1.84231058e-01 4.87010777e-02 0. 0. 0.
      0. 0. 0. 1.34041950e-01 3.93269479e-01 3.93269479e-01
      1.11601837e-02 0. 0. 0. 0. 0. 3.93269479e-01 3.93269479e-01
      3.93269479e-01 0. 0. 0. 0. 0. 0. 3.93269479e-01 1.80481747e-01
      9.85663943e-03 0. 0. 0. 0. 0. 0. 1.68584988e-01 2.07973987e-01 0.
      0. 0. 0. 0. 0. 0. 2.07973987e-01 4.59272146e-01 6.39595687e-02 0.
      0. 0. 0. 0. 0. 4.59272146e-01 4.59272146e-01 0. 0. 0. 0. 0. 0. 0.
      4.59272146e-01 1.88714236e-01 0. 0. 0. 3.41909006e-04 0.
      3.65439081e-03 2.90911682e-02 2.09200993e-01 6.90440536e-02 0. 0.
      0. 5.19457040e-03 0. 1.46484198e-02 6.31907508e-02 1.03212491e-01
      3.82192969e-01 5.02213128e-02 3.39750573e-02 2.05841251e-02
      2.33966336e-02 0. 5.48158661e-02 1.66343868e-01 3.82192969e-01
      3.82192969e-01 1.23400360e-01 1.06152616e-01 9.12122801e-02
      2.46101499e-01 0. 2.19726324e-01 3.64718527e-01 3.82192969e-01
      2.24716946e-01 2.26947978e-01 2.98012316e-01 7.76425377e-02
      1.80953532e-01 5.54840714e-02 1.41949728e-01 5.23190051e-02
      1.42695993e-01 3.28944325e-01 3.28944325e-01 3.02798539e-01
      3.52920629e-02 7.58849159e-02 3.27984951e-02 1.03736036e-01
      4.06925604e-02 3.28944325e-01 1.41349018e-01 4.76001874e-02
      6.28538281e-02 1.79175083e-02 6.98813796e-02 3.55758183e-02
      9.03550982e-02 4.06925604e-02 8.02273378e-02 3.28944325e-01
      9.61350277e-02 8.63923579e-02 8.14432185e-03 2.89385132e-02
      1.96155831e-02 6.50889501e-02 3.16497721e-02 3.21935892e-01
      3.47315639e-01 3.37619334e-01 1.88601073e-02 0. 0. 0. 0. 0.
      3.47315639e-01 3.47315639e-01 3.47315639e-01 0. 0. 0. 0. 0. 0.
      3.47315639e-01 3.02746683e-01 8.72187987e-02 9.95626952e-03 0. 0.
      0. 0. 0. 2.47798651e-01 2.71495700e-01 1.11260943e-01 0. 0. 0. 0.
      0. 0. 1.79420695e-01 4.31256831e-01 7.67966062e-02 0. 0. 0. 0. 0.
      0. 4.31256831e-01 4.31256831e-01 0. 0. 0. 0. 0. 0. 0.
      4.31256831e-01 2.48543411e-01 2.74418779e-02 0. 0. 0. 0. 0. 0.
      2.04404309e-01 2.66041785e-01 0. 0. 0. 0. 0. 0. 0. 2.66041785e-01
      3.79927665e-01 8.39271173e-02 5.83344586e-02 2.25302745e-02
      2.43800413e-02 0. 3.63909267e-02 8.17771479e-02 3.79927665e-01
      3.79927665e-01 2.07943320e-01 1.85013816e-01 9.98360440e-02
      2.50513643e-01 0. 1.45870999e-01 1.80245563e-01 3.79927665e-01
      2.86807209e-01 1.76723506e-02 1.27087301e-02 1.50201831e-03
      1.80711574e-03 0. 0. 0. 2.66784906e-01 1.48878723e-01
      4.42569405e-02 4.10387516e-02 6.65573636e-03 1.93838309e-02 0. 0.
      0. 1.23135783e-01 4.98706818e-01 0. 0. 0. 1.23933386e-02 0. 0. 0.
      4.98706818e-01 4.98706818e-01 0. 0. 0. 5.63333603e-03 0. 0. 0.
      4.98706818e-01 0. 0. 0. 0. 0. 0. 0. 0. 0. 0. 0. 0. 0. 0. 0. 0. 0.
      0. 7.27817595e-01 0. 0. 0. 0. 0. 0. 0. 6.78986847e-01
      3.14936899e-02 0. 0. 0. 0. 0. 0. 0. 3.14936899e-02 0. 0. 0. 0. 0.
      0. 0. 0. 0. 0. 0. 0. 0. 0. 0. 0. 0. 0. 4.90958154e-01 0. 0. 0. 0.
      0. 0. 0. 4.90958154e-01 0. 0. 0. 0. 0. 0. 0. 0. 0. 0. 0. 0. 0. 0.
      0. 0. 0. 0. 0. 0. 0. 0. 0. 0. 0. 0. 0. 0. 0. 0. 0. 0. 0. 0. 0. 0.
      0. 0. 0. 0. 0. 0. 0. 0. 0. 0. 0. 0. 0. 0. 0. 0. 0. 0. 0. 0. 0. 0.
      0. 0. 0. 0. 0.</_>
    <_>
      0. 0. 0. 0. 0. 0. 0. 0. 0. 0. 0. 0. 0. 0. 0. 0. 0. 0. 0. 0. 0. 0.
      0. 0. 0. 0. 0. 0. 0. 0. 0. 0. 0. 0. 0. 0. 0. 0. 0. 0. 0. 0. 0. 0.
      0. 0. 0. 0. 0. 0. 0. 0. 0. 0. 0. 0. 0. 0. 0. 0. 0. 0. 0. 0. 0. 0.
      0. 0. 0. 0. 0. 0. 0. 0. 0. 0. 0. 0. 0. 0. 0. 0. 0. 0. 0. 0. 0. 0.
      0. 0. 0. 0. 0. 0. 0. 0. 0. 0. 0. 0. 0. 0. 0. 0. 0. 0. 0. 0. 0. 0.
      0. 0. 0. 0. 0. 0. 0. 0. 0. 0. 0. 0. 0. 0. 0. 0. 0. 0. 0. 0. 0. 0.
      0. 0. 0. 0. 0. 0. 0. 0. 0. 0. 0. 0. 5.45421988e-02 5.48995472e-02
      1.29309557e-02 0. 5.24733122e-03 0. 0. 0. 2.24221162e-02
      2.89212584e-01 1.19749479e-01 1.05369333e-02 0. 2.36646109e-03 0.
      0. 0. 1.77265748e-01 2.80149251e-01 3.16251695e-01 1.93964347e-01
      0. 2.43148223e-01 8.17701444e-02 8.96255076e-02 9.85364467e-02
      1.57426149e-01 3.96186501e-01 3.96186501e-01 1.58054009e-01 0.
      1.22651458e-01 6.26770332e-02 8.62974226e-02 1.14399567e-01
      3.96186501e-01 2.21814141e-01 2.52908450e-02 1.02257283e-04 0. 0.
      0. 0. 0. 1.86719969e-01 2.46784210e-01 4.28412594e-02 0. 0. 0. 0.
      0. 0. 2.44475707e-01 4.29750204e-01 1.68360844e-01 1.53385918e-03
      0. 0. 0. 3.53750354e-03 8.05965811e-03 4.29750204e-01
      4.29750204e-01 1.46045715e-01 0. 0. 0. 0. 0. 0. 4.29750204e-01
      1.93084195e-01 8.87548625e-02 0. 0. 0. 0. 0. 0. 1.77863240e-01
      3.22028607e-01 8.01143795e-02 0. 0. 0. 0. 0. 0. 2.50224441e-01
      3.72276932e-01 3.06813627e-01 0. 0. 0. 0. 0. 0. 3.72276932e-01
      3.72276932e-01 3.13461900e-01 0. 0. 0. 0. 0. 0. 3.72276932e-01
      3.36069345e-01 2.61959229e-02 2.75917933e-03 0. 4.81716497e-03
      4.52259695e-03 1.92305334e-02 2.71455441e-02 3.25352013e-01
      1.46908954e-01 6.43370999e-03 1.10600144e-02 0. 4.90534939e-02
      2.00405270e-02 6.16155788e-02 6.76589459e-02 1.84911326e-01
      3.41490477e-01 2.13271514e-01 4.13876921e-02 0. 2.18177103e-02
      1.95979178e-02 4.42723408e-02 6.41445294e-02 3.41490477e-01
      3.41490477e-01 2.38352925e-01 1.65900245e-01 0. 2.27246150e-01
      8.68422836e-02 1.39877647e-01 1.58583224e-01 3.41490477e-01
      2.64789909e-01 1.72999963e-01 1.35752305e-01 0. 2.60440081e-01
      9.43555236e-02 1.65186808e-01 1.75477535e-01 2.37027183e-01
      3.75369638e-01 3.75369638e-01 1.10619277e-01 0. 1.32505566e-01
      7.23237619e-02 1.57334104e-01 2.02232182e-01 3.75369638e-01
      6.80435151e-02 3.38436803e-03 0. 0. 2.01985184e-02 6.29036734e-03
      3.67733017e-02 3.74628007e-02 7.52717108e-02 2.85327852e-01
      5.38899340e-02 0. 0. 1.01358052e-02 4.82158456e-03 3.45763601e-02
      4.27706651e-02 2.49848336e-01 4.40796673e-01 1.78145334e-01
      1.27100118e-03 0. 0. 0. 7.28531042e-03 1.66168660e-02
      4.40796673e-01 4.40796673e-01 1.45027369e-01 0. 0. 0. 0. 0. 0.
      4.40796673e-01 2.09425732e-01 2.68013943e-02 0. 0. 0. 0.
      1.50851859e-03 3.44583089e-03 1.83014035e-01 2.06368908e-01
      2.67986935e-02 0. 0. 0. 0. 0. 0. 2.09519789e-01 4.10167187e-01
      3.69749546e-01 0. 0. 0. 0. 0. 0. 4.10167187e-01 4.10167187e-01
      3.41057569e-01 0. 0. 0. 0. 0. 0. 4.10167187e-01 1.44715741e-01
      6.18632510e-02 0. 0. 0. 0. 0. 0. 1.42149583e-01 1.17606431e-01
      3.30150686e-02 0. 0. 0. 0. 0. 0. 1.00108892e-01 3.88924181e-01
      3.29420507e-01 5.28247543e-02 0. 1.82659607e-02 1.51715158e-02
      2.20034830e-02 3.28557827e-02 3.88924181e-01 3.88924181e-01
      3.88924181e-01 2.11745083e-01 0. 1.96935400e-01 6.72280043e-02
      6.83529750e-02 8.04833472e-02 3.88924181e-01 1.13678791e-01
      1.67144481e-02 0. 0. 0. 0. 0. 0. 9.68509167e-02 5.10752276e-02
      1.98995508e-02 0. 0. 0. 0. 0. 0. 3.86380665e-02 0. 0. 0. 0. 0. 0.
      0. 0. 0. 0. 0. 0. 0. 0. 0. 0. 0. 0. 0. 0. 0. 0. 0. 0. 0. 0. 0. 0.
      0. 0. 0. 0. 0. 0. 0. 0. 0. 0. 0. 0. 0. 0. 0. 0. 0. 0. 0. 0. 0. 0.
      0. 0. 0. 0. 0. 0. 0. 0. 0. 0. 0. 0. 0. 0. 0. 0. 0. 0. 0. 0. 0. 0.
      0. 0. 0. 0. 0. 0. 0. 0. 0. 0. 0. 0. 0. 0. 0. 0. 0. 0. 0. 0. 0. 0.
      0. 0. 0. 0. 0. 0. 0. 0. 0. 0. 0. 0. 0. 0. 0. 0. 0. 0. 0. 0. 0. 0.
      0. 0. 0. 0. 0. 0. 0. 0. 0. 0. 0. 0. 0. 0. 0. 0. 0. 0. 0. 0. 0. 0.
      0. 0. 0. 0. 0. 0.</_>
    <_>
      0. 0. 0. 0. 0. 0. 0. 0. 0. 0. 0. 0. 0. 0. 0. 0. 0. 0. 0. 0. 0. 0.
      0. 0. 0. 0. 0. 0. 0. 0. 0. 0. 0. 0. 0. 0. 0. 0. 0. 0. 0. 0. 0. 0.
      0. 0. 0. 0. 0. 0. 0. 0. 0. 0. 0. 0. 0. 0. 0. 0. 0. 0. 0.
      6.81351364e-01 0. 0. 0. 0. 0. 0. 0. 6.81351364e-01 0. 0. 0. 0. 0.
      0. 0. 0. 0. 0. 0. 0. 0. 0. 0. 0. 0. 0. 6.79895580e-01 0. 0. 0. 0.
      0. 0. 0. 6.79895580e-01 4.53263745e-02 0. 0. 0. 0. 0. 0. 0.
      4.53263745e-02 0. 0. 0. 0. 0. 0. 0. 0. 0. 0. 0. 0. 0. 0. 0. 0. 0.
      0. 4.56437021e-02 0. 0. 0. 0. 0. 0. 0. 4.56437021e-02
      6.84655547e-01 0. 0. 0. 0. 0. 0. 0. 6.84655547e-01 4.74287346e-02
      6.22510985e-02 1.67102162e-02 0. 2.11198698e-03 0. 0. 0.
      4.79475223e-02 2.01863810e-01 1.26734748e-01 9.07338411e-03 0.
      4.87381651e-04 0. 0. 0. 2.09521115e-01 3.17666978e-01
      3.44244868e-01 2.50653267e-01 9.87781361e-02 1.96548730e-01 0.
      1.06744543e-01 7.09760413e-02 2.91000873e-01 3.76867563e-01
      3.76867563e-01 1.36100769e-01 4.43268195e-02 5.82571588e-02 0.
      5.28654195e-02 4.71683033e-02 3.76867563e-01 1.69434607e-01
      6.97609931e-02 0. 0. 0. 0. 0. 0. 1.70059592e-01 2.20432729e-01
      1.51901945e-01 0. 0. 0. 0. 0. 0. 2.30461583e-01 3.76374066e-01
      3.17301691e-01 0. 0. 0. 0. 0. 0. 3.76374066e-01 3.76374066e-01
      3.76374066e-01 0. 0. 0. 0. 0. 0. 3.76374066e-01 2.26311341e-01
      8.87559280e-02 0. 0. 0. 0. 0. 0. 2.31542140e-01 3.30573797e-01
      1.04913348e-02 0. 0. 0. 0. 0. 0. 3.30294669e-01 3.78081650e-01
      3.01817447e-01 0. 0. 0. 0. 0. 0. 3.78081650e-01 3.78081650e-01
      4.64338213e-02 0. 0. 0. 0. 0. 0. 3.78081650e-01 3.30633342e-01
      1.72710177e-04 4.87628073e-04 0. 0. 4.05689992e-04 4.30187304e-03
      1.10901874e-02 3.31581831e-01 2.22225785e-01 2.59065279e-03
      7.31442077e-03 4.10402892e-03 2.53037512e-02 1.83159970e-02
      7.24048540e-02 5.88405244e-02 2.26624429e-01 3.64609689e-01
      2.71890853e-02 7.31442077e-03 0. 0. 1.75798987e-03 1.17538897e-02
      2.43984126e-02 3.64609689e-01 3.64609689e-01 2.09966153e-01
      1.09716319e-01 6.15604259e-02 1.27105460e-01 5.32772690e-02
      1.93637192e-01 1.29449159e-01 3.64609689e-01 3.58806580e-01
      1.76358432e-01 1.60517693e-01 1.04293592e-01 2.20608264e-01 0.
      1.85818836e-01 1.48232013e-01 3.07252944e-01 3.58806580e-01
      3.58806580e-01 8.71585757e-02 4.68018912e-02 6.44687563e-02 0.
      9.20270905e-02 9.33270827e-02 3.58806580e-01 1.18509911e-01
      9.87251010e-03 0. 6.95290556e-03 2.40763240e-02 0. 4.28812690e-02
      4.82425764e-02 8.65362063e-02 3.18869293e-01 4.67288457e-02 0.
      3.12012620e-03 6.43462921e-03 0. 2.12370194e-02 2.79166456e-02
      2.26799145e-01 3.98436010e-01 3.02480668e-01 0. 0. 0. 0. 0. 0.
      3.98436010e-01 3.98436010e-01 3.80172998e-01 0. 0. 0. 0. 0. 0.
      3.98436010e-01 2.19695523e-01 4.53705937e-02 0. 0. 0. 0. 0. 0.
      1.61479786e-01 1.81919724e-01 4.96770255e-02 0. 0. 0. 0. 0. 0.
      1.14130259e-01 4.53356087e-01 3.50675046e-01 0. 0. 0. 0. 0. 0.
      4.53356087e-01 4.53356087e-01 6.06980436e-02 0. 0. 0. 0. 0. 0.
      4.53356087e-01 1.32388622e-01 3.01142428e-02 0. 0. 0. 0. 0. 0.
      8.56975093e-02 1.04112886e-01 3.31538823e-03 0. 0. 0. 0. 0. 0.
      1.00295581e-01 4.25031006e-01 5.69294207e-02 9.65094659e-03 0. 0.
      1.40688696e-03 7.16984738e-03 1.18428739e-02 4.25031006e-01
      4.25031006e-01 4.23496366e-01 1.44764215e-01 8.12253729e-02
      1.15336567e-01 3.41640413e-02 1.15959063e-01 6.28340170e-02
      4.25031006e-01 1.02363817e-01 3.56741366e-03 0. 0. 0. 0. 0. 0.
      1.03456281e-01 6.69483095e-02 2.48148795e-02 0. 0. 5.06729048e-05
      0. 0. 0. 6.75363466e-02 0. 0. 0. 0. 0. 0. 0. 0. 0. 0. 0. 0. 0. 0.
      0. 0. 0. 0. 0. 0. 0. 0. 0. 0. 0. 0. 0. 0. 0. 0. 0. 0. 0. 0. 0. 0.
      0. 0. 0. 0. 0. 0. 0. 0. 0. 0. 0. 0. 0. 0. 0. 0. 0. 0. 0. 0. 0. 0.
      0. 0. 0. 0. 0. 0. 0. 0. 0. 0. 0. 0. 0. 0. 0. 0. 0. 0. 0. 0. 0. 0.
      0. 0. 0. 0. 0. 0. 0. 0. 0. 0. 0. 0. 0. 0. 0. 0. 0. 0. 0. 0. 0. 0.
      0. 0. 0. 0. 0. 0. 0. 0. 0. 0. 0. 0. 0. 0. 0. 0. 0. 0. 0. 0. 0. 0.
      0. 0. 0. 0. 0. 0. 0. 0. 0. 0. 0. 0. 0. 0. 0. 0. 0. 0. 0. 0.</_>
    <_>
      0. 0. 0. 0. 0. 0. 0. 0. 0. 0. 0. 0. 0. 0. 0. 0. 0. 0. 0. 0. 0. 0.
      0. 0. 0. 0. 0. 0. 0. 0. 0. 0. 0. 0. 0. 0. 0. 0. 0. 0. 0. 0. 0. 0.
      0. 0. 0. 0. 0. 0. 0. 0. 0. 0. 0. 0. 0. 0. 0. 0. 0. 0. 0. 0. 0. 0.
      0. 0. 0. 0. 0. 0. 0. 0. 0. 0. 0. 0. 0. 0. 0. 0. 0. 0. 0. 0. 0. 0.
      0. 0. 0. 0. 0. 0. 0. 0. 0. 0. 0. 0. 0. 0. 0. 0. 0. 0. 0. 0. 0. 0.
      0. 0. 0. 0. 0. 0. 0. 0. 0. 0. 0. 0. 0. 0. 0. 0. 4.21328068e-01 0.
      0. 0. 0. 0. 0. 0. 4.21328068e-01 5.41707516e-01 0. 0. 0. 0. 0. 0.
      0. 5.41707516e-01 1.26013845e-01 4.02517207e-02 3.75618190e-02
      5.63568762e-03 7.05070002e-03 0. 0. 0. 1.03951320e-01
      2.96319425e-01 3.63863967e-02 1.19564114e-02 4.70966945e-04
      4.60412703e-04 0. 0. 0. 2.41641164e-01 3.97414714e-01
      2.00180769e-01 2.59309500e-01 8.45353082e-02 1.53694212e-01
      4.08269130e-02 1.12075828e-01 3.62671241e-02 3.97414714e-01
      3.97414714e-01 1.63967386e-01 7.40899518e-02 7.06450408e-03
      9.11200978e-03 6.38527190e-03 2.39082053e-02 8.36933590e-03
      3.97414714e-01 2.33185142e-01 5.43155372e-02 0. 0. 0. 0. 0. 0.
      1.60748661e-01 3.27049017e-01 8.14365372e-02 0. 0. 0. 0. 0. 0.
      2.26480916e-01 3.75069588e-01 2.11694330e-01 0. 0. 0. 0. 0. 0.
      3.75069588e-01 3.75069588e-01 3.75069588e-01 0. 0. 0. 0. 0. 0.
      3.75069588e-01 2.91306585e-01 2.89919339e-02 0. 0. 0. 0. 0. 0.
      2.46897087e-01 3.31953108e-01 1.62348559e-04 0. 0. 0. 0. 0.
      6.38784794e-03 3.30588847e-01 3.87868792e-01 1.66524142e-01 0. 0.
      0. 0. 0. 0. 3.87868792e-01 3.87868792e-01 1.57321636e-02 0. 0. 0.
      0. 0. 1.40532665e-02 3.87868792e-01 3.53233039e-01 2.29129987e-03
      6.46923156e-03 3.12741334e-03 1.88606717e-02 1.47023611e-02
      6.30741790e-02 6.09216355e-02 3.53233039e-01 1.01635031e-01
      2.94595677e-03 8.31758231e-03 6.88030990e-03 4.60485630e-02
      2.74243467e-02 8.65832344e-02 5.41956723e-02 1.05432026e-01
      3.53233039e-01 2.02047810e-01 9.70384702e-02 4.69112024e-02
      9.49876532e-02 4.38271835e-02 1.69140920e-01 1.34027600e-01
      3.53233039e-01 2.68836498e-01 2.15361938e-01 1.24763742e-01
      1.03204653e-01 2.29185894e-01 7.50961155e-02 2.29540214e-01
      1.19230479e-01 2.72549897e-01 4.10827726e-01 1.45417854e-01
      1.74276724e-01 6.99227974e-02 1.74719945e-01 7.20456839e-02
      1.99740216e-01 8.15432966e-02 4.10827726e-01 4.10827726e-01
      1.65384397e-01 4.73664068e-02 5.84335485e-03 1.01371445e-02
      9.79903340e-03 4.16972525e-02 1.88176837e-02 4.10827726e-01
      1.37421057e-01 1.33641781e-02 0. 0. 9.55110788e-03 1.16299419e-02
      3.28760780e-02 1.88176837e-02 1.21258847e-01 2.43107259e-01
      2.75185332e-02 0. 0. 5.37413347e-04 1.10839528e-03 6.57217810e-03
      4.34254203e-03 2.34170049e-01 4.07179266e-01 2.92200893e-01 0. 0.
      0. 0. 0. 0. 4.07179266e-01 4.07179266e-01 4.07179266e-01 0. 0. 0.
      0. 0. 0. 4.07179266e-01 1.55180812e-01 5.55462390e-02 0. 0. 0. 0.
      0. 0. 1.57973930e-01 1.16259649e-01 5.04539646e-02 0. 0. 0. 0. 0.
      0. 1.15724303e-01 4.69925135e-01 2.61855930e-01 0. 0. 0. 0. 0. 0.
      4.69925135e-01 4.69925135e-01 3.45967077e-02 0. 0. 0. 0. 0.
      7.01956125e-03 4.69925135e-01 9.84598622e-02 1.53331282e-02 0. 0.
      0. 0. 0. 0. 9.92080644e-02 1.05312757e-01 2.29455368e-03 0. 0. 0.
      0. 0. 0. 1.06326431e-01 3.98761690e-01 3.98761690e-01
      1.24539949e-01 6.02062196e-02 8.39749724e-02 2.78360061e-02
      9.87574682e-02 6.32797182e-02 3.98761690e-01 3.08864087e-01
      3.98761690e-01 1.60122782e-01 1.32453680e-01 2.01113775e-01
      4.46402915e-02 1.32674187e-01 5.62934130e-02 3.01377982e-01
      1.08567722e-01 2.36536190e-02 0. 0. 3.13656928e-05 0. 0. 0.
      1.10121779e-01 2.84139849e-02 2.41465457e-02 0. 0. 1.35918002e-04
      0. 0. 0. 2.77535766e-02 0. 0. 0. 0. 0. 0. 0. 0. 0. 0. 0. 0. 0. 0.
      0. 0. 0. 0. 0. 0. 0. 0. 0. 0. 0. 0. 0. 0. 0. 0. 0. 0. 0. 0. 0. 0.
      0. 0. 0. 0. 0. 0. 0. 0. 0. 0. 0. 0. 0. 0. 0. 0. 0. 0. 0. 0. 0. 0.
      0. 0. 0. 0. 0. 0. 0. 0. 0. 0. 0. 0. 0. 0. 0. 0. 0. 0. 0. 0. 0. 0.
      0. 0. 0. 0. 0. 0. 0. 0. 0. 0. 0. 0. 0. 0. 0. 0. 0. 0. 0. 0. 0. 0.
      0. 0. 0. 0. 0. 0. 0. 0. 0. 0. 0. 0. 0. 0. 0. 0. 0. 0. 0. 0. 0. 0.
      0. 0. 0. 0. 0. 0. 0. 0. 0. 0. 0. 0. 0. 0. 0. 0. 0. 0. 0. 0.</_>
    <_>
      0. 0. 0. 0. 0. 0. 0. 0. 0. 0. 0. 0. 0. 0. 0. 0. 0. 0. 0. 0. 0. 0.
      0. 0. 0. 0. 0. 0. 0. 0. 0. 0. 0. 0. 0. 0. 0. 0. 0. 0. 0. 0. 0. 0.
